4835 20
</s> 0.020013 0.022097 -0.019151 -0.016390 0.006833 0.015105 0.004704 0.001057 -0.018018 0.011092 -0.021782 0.006248 -0.003757 -0.004786 -0.016579 -0.009411 0.012897 0.015127 0.014845 0.007987 
de 1.269806 -4.721096 -2.569757 1.434343 2.365301 -0.769448 0.561118 4.751884 -1.624390 2.848207 1.748407 -1.522888 -0.512810 -0.632316 -1.890230 3.312571 3.177105 -4.246262 2.701221 0.373293 
que -0.125679 -4.181116 5.979322 0.722695 -0.916196 -2.547810 -1.652240 -0.623869 -0.823500 4.572015 -1.207286 -2.768450 -2.349658 2.388575 0.691356 -1.696720 2.355132 -0.167639 0.976914 0.478092 
y 0.070321 -1.622105 0.965665 0.695961 1.513145 -1.119867 1.518013 -2.062329 -1.292629 3.128980 0.802422 2.771418 -2.721794 -0.338091 -2.292920 -0.417072 1.576563 3.392696 -2.466533 -3.156546 
en -2.305425 0.294220 4.271813 4.981542 0.397995 0.592081 4.898202 2.742640 1.616667 0.099054 -1.117595 0.510705 -0.117269 0.068550 1.473466 1.715366 -2.869205 -0.961227 0.345702 2.716938 
no -0.540847 -2.557015 5.243438 -0.516141 -0.799838 -0.951487 2.507189 -1.107028 -1.732787 -1.974379 2.893157 -1.974968 -1.086431 5.041223 1.535950 0.928777 -1.202697 -5.503600 4.226667 -2.206448 
es -2.461972 3.411105 3.664832 0.026001 4.437733 -2.511970 3.876591 1.127320 -0.151104 0.524880 1.110349 -0.052184 -0.532996 -4.974014 -0.310490 2.582173 -0.713189 -3.067921 -2.458694 -2.361291 
a -2.266639 -2.858519 -0.297072 0.207281 -1.275790 9.100661 -1.913539 1.619779 -3.313728 2.464611 -1.399620 1.589584 0.729445 2.345937 0.775771 1.772380 -3.210839 -5.242833 -4.168519 -0.890109 
si 1.618813 -2.978363 2.951768 -1.756329 1.078227 0.850889 -0.809076 -0.345131 0.503233 2.352728 -2.455233 -1.659773 -0.746962 1.778538 2.778186 0.618906 -0.854335 -2.060790 3.454722 -1.095532 
para 2.492064 -0.060573 -2.640813 -0.556133 -0.951060 4.676037 4.401810 -0.348441 1.526295 5.842605 -0.228160 5.206571 -4.066101 3.658771 0.566013 2.463493 -0.147916 -0.871134 0.882123 -1.249311 
con -1.845987 -0.613446 -0.025336 0.921083 -0.548659 0.250237 1.306599 -0.588974 -0.199012 3.226283 3.105200 -0.686760 -1.910337 -2.244709 -0.399624 4.816569 1.120575 0.126871 1.635158 2.552947 
puedo -1.166939 2.662380 3.680834 2.302615 -0.836860 3.171154 2.650790 0.237755 -2.407929 6.724923 1.495926 -1.453901 -0.331028 -0.261212 -3.381316 0.715875 -0.614191 -3.395788 0.563284 -3.486440 
por -0.103510 -1.047785 1.968173 0.482594 0.574314 1.760669 0.909983 1.193270 -0.626686 -0.116693 0.514263 -0.406354 -1.001817 -0.583449 1.539600 0.651933 -1.141690 -0.925011 -0.244899 -1.925709 
pero 0.358324 -2.203848 2.273261 0.435658 1.682256 -1.505800 0.227997 -0.836686 -1.132568 2.162649 0.535102 0.094656 -2.264024 -0.565267 0.425414 -0.578979 -0.468915 0.404333 -0.617675 -3.182087 
ayudar 0.799715 -1.786362 4.399412 5.864670 7.704775 3.710083 1.163771 -2.640004 0.773613 0.909626 0.088509 1.689547 -1.019014 -0.507744 2.091906 -0.549959 -0.472055 -1.953642 1.933375 -1.882740 
tiene -0.801722 1.712357 1.253375 -0.036706 1.603765 -1.289103 2.311475 -0.211250 0.445483 1.714413 3.519414 0.722357 -2.549557 -4.902747 -1.129935 3.508536 1.043135 -2.514335 -1.011282 -1.679235 
intel -6.068920 1.274039 -3.527557 -1.241157 3.261728 1.661292 -1.382782 1.899676 4.861093 -2.472317 -1.916861 -1.013246 -0.245752 1.306673 -0.855354 6.525819 -2.106906 5.262921 5.488199 -5.666701 
o -1.179042 -1.413241 -0.917911 -0.231625 3.140379 0.348788 -0.479444 0.298424 -1.519433 0.396231 0.234861 -0.550287 -0.504642 -1.166508 -0.468105 1.884858 0.144460 1.128610 -1.154243 -3.325971 
puede -0.094135 0.427717 0.406226 1.327306 -1.617058 3.955438 0.219773 -0.718149 -3.132449 3.556014 1.855295 1.308805 -1.066522 -1.355630 -1.763907 3.009594 -0.441623 -2.774990 0.910817 -1.986320 
mas -1.001063 -1.462986 1.750673 -1.369339 1.737406 -0.666850 0.971986 2.146463 -0.706269 1.494133 -0.159721 -1.400304 -1.685844 1.547333 1.425377 0.440287 -0.564454 -0.739718 -0.841615 -2.865978 
equipo 0.606353 -0.560057 3.357600 0.457536 1.685647 -1.445628 0.166237 -0.179047 -0.512743 3.810597 0.517558 0.768338 -1.932499 1.414511 0.377048 1.546787 -0.618952 -1.495256 1.167567 -2.068882 
ya -0.352177 -1.709675 3.281613 -0.880594 0.582830 0.385012 0.879381 0.447543 -0.153360 1.393365 1.848141 -1.122311 -1.015709 0.967570 0.719393 0.402396 -0.832653 -2.204186 1.641816 -1.709846 
mejor -0.112696 -0.317748 0.840059 0.324784 2.119831 -1.765590 0.944777 1.878480 0.117261 2.734244 1.644645 -1.288045 -1.695620 1.275680 -1.063682 1.985298 0.296517 -0.596907 -0.180216 -1.219576 
pc -2.359662 -0.755396 1.552755 -0.149443 0.581818 0.133063 0.304952 -0.968697 0.315311 2.681776 -2.906736 1.166893 -1.104642 2.325612 0.868177 0.272291 -0.229855 0.891122 0.079516 -2.840636 
procesador -0.705664 -1.168233 0.620212 -2.236884 4.079841 -2.455029 -0.599376 1.391657 1.306310 1.810807 0.858700 0.195523 -2.836823 -0.162133 0.508662 3.211438 0.776273 -0.516632 -1.566237 -3.045661 
bien -2.782501 -0.217236 3.278220 -1.929211 0.084512 0.035659 0.866663 1.230452 -0.902323 0.901451 0.291745 1.192332 -3.937125 1.077280 1.597822 0.500670 0.038992 -1.932832 -2.429993 -2.145871 
más 0.084831 -0.539111 2.448925 1.967211 1.200280 -0.367760 1.060100 0.744400 -0.398469 1.803258 -0.015403 -2.212199 -0.866523 1.296283 0.870124 0.440066 0.243459 -1.000785 0.402876 -1.206406 
core -5.299124 -3.271654 -2.878769 -1.036210 5.524926 6.012824 -1.197881 0.031187 5.148643 -3.353033 -2.562005 -1.387431 -0.909099 -1.378915 -1.048094 6.240592 2.307166 5.109674 -1.399524 -2.208992 
estoy -3.144492 1.190642 -0.799554 2.132649 -0.725816 2.781582 1.901488 -1.589869 2.581785 2.439412 -1.668031 -0.983523 -0.776369 0.916736 0.013334 -1.403705 2.157008 1.550441 0.038451 -3.421599 
como -0.655218 -1.536032 1.289325 0.813771 0.687789 1.002823 0.031679 -0.088115 -0.590885 1.368937 -0.806114 -0.172423 -1.218583 1.177635 1.554577 0.492227 0.550579 -1.045924 0.514444 -1.135147 
muy -1.009879 -1.906122 2.059893 -1.386628 -0.021215 -1.208817 1.144963 1.132389 0.118454 2.291049 1.002424 -1.828334 -4.136116 2.543350 2.085010 -0.356700 0.935014 0.209714 -1.125719 -2.899579 
son -0.966576 -0.179579 1.963375 0.453718 1.125687 1.033878 0.916289 1.684916 -0.244164 1.768676 3.141552 0.588053 0.018748 -2.023154 -1.294933 3.042187 0.147983 -1.524463 0.375670 -1.129231 
comprar -1.911439 -1.739128 1.324063 -0.508489 0.669991 0.586815 0.940883 -1.499900 1.305574 0.310109 -1.725548 0.491387 -1.031367 0.582990 1.414699 0.500621 0.262580 -0.063157 2.288289 -1.027441 
portatil -2.522332 -0.846094 1.134543 -0.480215 -0.060680 -0.306324 -0.047635 -0.735492 1.481797 2.234360 -2.340641 0.656542 -1.373461 1.522883 0.154557 1.192497 0.483248 1.105053 0.658068 -2.532127 
tengo -1.667974 0.667030 1.630332 -0.710292 0.798722 1.086269 2.084749 -0.124683 0.651752 1.596839 1.186445 -0.070030 -0.845869 -1.606567 0.363280 0.807800 -0.812823 -1.699939 0.052428 -2.348146 
he -1.177390 0.462785 3.716074 -0.047950 0.467040 0.687429 1.482728 -0.568376 1.498866 1.228264 0.854860 -0.182537 -1.272717 -0.499007 -0.121265 -0.019570 -0.225229 -1.306600 0.958490 -2.011734 
soporte -0.000615 -2.735035 2.128798 4.324069 3.819731 2.746615 -1.807949 -2.471383 -0.172594 5.382067 1.338338 3.285055 -0.560235 0.018179 -3.779302 6.654632 -0.829919 -1.123812 3.021383 0.066305 
soporte_enlace 0.835294 -0.913812 2.239413 4.207204 0.788828 1.815069 -0.261087 -1.389209 -0.254449 3.487547 1.405045 1.051150 -1.146517 0.493483 -2.382471 3.374291 0.258999 -1.794360 2.158012 0.270737 
enlace 1.055046 -0.931061 3.190065 3.192837 1.038686 1.315811 -0.925849 -1.705115 -0.731474 4.058424 0.437753 1.894327 -1.444848 -0.132522 -1.011648 3.140086 1.129893 -3.415542 1.630086 -1.091709 
ordenador -1.642430 -0.809685 1.409874 -0.116447 0.622813 -0.125858 -0.126539 -0.810104 1.278146 2.061389 -1.952651 0.672219 -1.422583 1.641821 0.764149 0.336083 0.108547 0.886692 0.471269 -2.763035 
hay -1.695762 0.805877 2.268631 -0.961933 1.080719 0.510405 1.469632 0.154444 1.100347 0.747960 0.652486 0.078614 -0.953699 -2.763683 0.233654 0.901342 -0.463382 -1.674990 0.282608 -2.950680 
precio -1.317246 -1.926934 3.140320 -0.408163 0.910832 -1.036964 0.833099 0.834812 -0.987608 1.627895 0.432122 -0.475057 -1.127120 1.719130 2.285641 1.050024 -0.804084 -1.255571 -0.117824 -1.989954 
euros -1.746558 -2.234021 0.527464 -0.744749 1.389701 -0.701346 0.047087 0.877648 -1.190009 0.765580 -0.194782 -0.797273 -0.583434 0.607913 0.429871 2.177624 0.405465 0.425881 -0.200989 -2.756958 
modelo -0.053782 -0.579395 2.580105 -0.402151 1.226249 -1.339985 0.668171 0.409115 0.664216 1.840612 0.433912 -0.447797 -1.362621 1.251197 0.520040 1.150192 -0.488956 -0.496522 0.406215 -2.315426 
saber -1.172678 -0.776324 1.971520 -0.008753 0.699594 -0.668963 -0.813123 -0.003413 0.547520 -1.583470 -2.107128 0.442295 -3.065220 -1.097121 1.983193 0.934465 -0.412578 1.423836 1.974813 -4.324296 
sistema 0.620667 -3.505503 3.929107 -2.711994 0.746281 -0.407054 -0.773222 -4.625236 4.026297 2.221251 0.786628 1.299840 -0.471646 -1.963117 0.330355 2.739964 0.385082 -0.952670 1.933824 -3.852073 
presupuesto -0.240367 -1.856498 2.025526 0.754088 1.422785 -0.990815 0.729440 2.382490 -0.036636 1.797522 -1.074792 -0.768802 -1.234303 2.139935 0.365975 3.205506 -0.472327 -0.705866 -1.706865 -1.690828 
windows -0.852481 -2.867133 0.975033 -2.967004 2.302038 0.143419 -2.140641 -2.861225 1.124951 0.996621 1.778899 0.664869 -1.951011 -1.167161 0.800399 2.839317 1.549531 0.676560 2.375164 -2.444285 
operativo -1.245282 -2.533922 1.808674 -3.044400 0.982875 1.820989 -0.115704 -5.292025 0.646356 -0.922601 2.382732 -0.943367 -3.268090 -0.137526 1.551375 2.784609 1.058260 0.196367 5.271058 -0.188180 
link -0.471353 -3.509961 2.002142 2.495335 2.160233 2.710361 -2.577606 0.143679 -2.331831 2.642303 -0.271292 1.980885 0.111350 0.749696 -0.461273 3.753502 -1.443124 -1.338122 1.895927 -0.896776 
va -2.862154 -0.844692 0.733839 -1.145873 1.121213 0.706422 1.324865 1.167717 -2.040512 3.017794 0.392737 0.543670 -2.039510 0.527332 0.441751 0.159164 -0.752252 -1.017446 0.182458 -2.235425 
cuanto -1.049966 -2.181498 1.016239 1.074289 2.087329 -1.406451 0.591861 1.271894 -2.679913 4.114150 -0.048691 -1.488021 -1.167151 1.687777 1.411820 0.991271 0.931455 -0.337182 0.373620 -2.580898 
ram -0.964068 -2.768984 -0.162890 -0.749633 1.571847 -1.035493 -1.035720 1.045041 -0.291585 1.867848 1.758800 0.642515 -1.370463 -0.644493 -0.346400 4.810513 1.312927 0.097088 -0.068444 -1.812521 
perfecto -1.035211 -0.856118 1.522021 0.163858 0.683180 0.317170 0.491075 0.142714 -0.251546 0.900007 0.011259 -0.411490 -1.342635 0.524624 0.367265 0.172534 -0.091368 -0.499084 0.425867 -1.558398 
hacer -0.287295 -1.592151 2.154942 1.179422 1.179938 0.819866 -0.468209 -1.201218 -0.392325 1.133381 -1.415649 1.752382 -0.918798 -0.214608 0.941584 1.291095 -0.080427 -1.163991 1.532223 -1.221717 
i5 -2.328672 -1.467038 -0.603627 -2.080623 2.996159 -0.674821 -0.559344 1.310866 0.992583 1.207359 0.291767 -0.761809 -1.084588 0.345044 0.534573 3.570121 0.685901 0.999122 -0.411328 -2.638067 
10 -1.708620 -3.005329 0.309928 -3.094831 2.069552 0.539768 -1.482205 -1.412441 0.616764 0.739680 2.304440 0.331028 -1.768327 -1.589452 0.035513 5.084215 1.596383 1.689358 1.338057 -2.004348 
hp -2.728732 -0.948937 -0.466621 -0.194577 1.121709 1.663331 0.051317 -0.129107 2.549853 -0.152796 -1.071652 -0.648417 -0.693552 0.226348 0.401801 2.647919 0.968034 2.246360 0.742391 -2.518854 
decir 1.010782 -2.327293 2.621768 1.653878 2.463629 0.552764 -0.317897 0.079693 -0.006101 0.874042 -0.993795 -0.190160 -1.232854 -0.042689 1.935468 -0.141763 -1.780922 -0.637915 1.386115 -1.821570 
solo -0.195636 -1.439488 1.415485 0.522458 0.791932 -0.335169 -0.109940 -0.379813 0.449570 0.837113 -0.565527 -0.704192 -1.238119 0.915586 0.404892 1.212854 0.475874 -0.685681 1.340645 -0.967754 
sin -0.925005 -1.431907 1.492319 -0.115518 -0.275638 1.690032 1.208875 -1.730544 0.292522 -0.236126 1.086794 -0.423726 -1.249620 -0.605095 0.290435 2.091508 0.486586 -0.777007 1.654301 -0.381376 
voy -2.697184 -2.107385 0.627137 -0.420636 1.337425 1.574763 1.044730 0.942871 -2.677500 2.929650 -0.296809 1.180836 -1.414007 1.833705 -0.262843 0.360079 -1.312192 -0.968349 2.374017 -1.629038 
debe -0.692596 -1.206417 0.625160 1.449020 0.559967 2.536582 -0.233181 -2.204384 0.013047 2.569868 1.491942 0.937521 -1.030456 -0.582987 -1.840669 3.187129 -0.032215 -1.413113 2.410208 -0.589869 
grafica -1.088276 -0.859294 1.062677 -1.359835 1.647598 -1.464901 -0.087631 0.377550 0.709690 1.616053 0.754130 -0.471302 -2.530594 0.678421 0.417555 1.825705 0.435860 -0.388837 -0.184067 -2.677456 
jugar -3.006234 -1.735071 1.061787 -0.446237 0.923543 -0.293478 0.211929 0.094713 -1.402495 2.503528 -3.117957 1.841003 -2.919068 1.485075 -0.344863 1.360482 0.629770 -0.812858 1.088357 -1.111451 
fps -2.282660 -1.360772 0.762939 1.831101 1.951600 2.176379 0.306295 0.535044 -2.085838 2.485118 -1.706962 0.252213 -0.774157 2.575159 1.245267 0.602016 -0.114985 -0.726301 -0.175250 -1.598204 
quiero -1.707887 -0.230961 0.417997 -1.235935 -0.479711 1.623573 1.189067 0.039825 0.848526 1.713904 -0.921455 0.030412 -1.695623 -0.192133 -0.167439 0.630329 0.157691 -1.112987 0.308521 -2.168653 
pasar 0.315828 -3.358918 2.202683 2.421512 1.982886 1.611737 -0.863836 0.269305 -1.346253 1.133982 -1.148713 2.272979 -0.904107 -0.322438 0.344196 3.805390 -0.613416 -0.700320 2.120952 0.265240 
tenga -1.318213 1.306431 1.405835 -0.419005 0.502806 2.905162 2.753718 0.330565 1.864949 0.962355 1.454007 0.335377 -1.757817 -1.070715 -1.342516 0.049759 0.434010 -1.327921 0.284950 -1.456454 
cuando -1.423235 -1.196785 2.429127 1.092633 0.052520 0.846753 0.513787 0.228789 -0.418060 1.313467 -1.581657 -0.745277 -0.929091 1.293051 1.207040 0.431960 -0.079202 -1.488020 1.149508 -1.596015 
i7 -1.971544 -1.911476 -0.211517 -2.059937 2.513221 -0.739307 -0.677581 1.218293 0.956245 0.479841 0.666158 -0.542884 -1.654922 0.202180 -0.028572 4.053322 0.609501 1.046136 -0.155608 -2.092702 
porque 0.061791 -1.658960 2.029531 0.670937 0.956537 -0.011819 0.340474 -0.523889 0.043824 1.858488 -0.179663 -0.840717 -1.673881 0.615149 0.552658 -0.278662 -0.425558 -0.291213 0.504103 -1.957369 
memoria -0.110831 -2.092045 0.311529 -0.083979 1.484563 -1.265468 -0.325984 1.062188 -0.010572 1.870224 1.378308 -0.259165 -1.899225 -0.274175 -0.513477 3.872498 1.786223 -0.735648 -1.097857 -1.660127 
problema 0.413992 -1.348291 2.173569 1.062111 0.456057 0.157825 -0.586435 -0.929894 -0.220721 2.898578 -0.062701 -0.155300 -1.345005 0.942362 -0.593579 0.248475 -0.942457 -0.788098 1.207228 -1.375853 
esta -1.505740 -0.837407 1.363656 -0.728656 0.274025 0.431479 0.958189 0.288505 -1.060387 1.810696 0.658925 -0.574228 -1.769387 -0.582931 0.830185 0.258338 0.232298 -0.742934 -0.579989 -2.802791 
información -0.133089 -1.224173 2.061487 1.481567 0.646019 0.928280 -0.043707 -1.604402 0.677828 2.186816 -0.259977 0.829271 -1.588813 -0.093937 -0.471880 1.470046 -1.109537 -0.763416 1.790500 -0.850537 
gaming -2.288665 -1.093887 -0.676858 -0.676133 0.632030 0.452051 0.343885 0.285939 1.241472 0.897251 -1.880511 -0.132520 -1.685929 0.567382 -0.359766 1.728065 1.237040 0.772952 0.667255 -1.836036 
técnico -0.592281 -2.216894 0.979783 2.905240 2.105500 1.932158 -1.196513 -2.283123 0.561965 3.355381 1.179605 1.111847 -1.939796 -0.571968 -2.544621 4.052335 0.073939 -0.768907 3.477979 0.199496 
ha -0.707432 -0.125895 2.251611 0.530819 0.487772 1.996429 1.070810 -0.017047 0.661961 1.011063 0.617969 -0.198140 -1.123259 -0.548168 -0.176956 0.700161 -0.374520 -1.395257 0.503486 -1.448467 
nombre 0.708632 -0.352297 2.491666 2.480574 2.222136 0.291922 1.696970 1.057347 1.531017 1.072997 -1.001443 -3.182237 -1.211327 2.819704 1.608903 -0.613701 0.038246 0.126416 -0.694301 -2.195545 
web -1.300185 -1.750344 2.560455 1.668718 0.705502 0.823735 -0.316212 -0.280983 -2.206961 3.470274 0.870848 -0.167585 0.954266 0.828965 0.744424 1.047625 0.212291 -1.675813 0.752251 -1.681941 
ver -0.904715 -1.149834 2.470063 1.257404 1.815020 0.222395 0.124783 -0.074317 -1.159862 0.747976 -0.721621 1.221550 -0.894946 0.298536 0.352319 0.289245 -0.927256 -1.365357 1.852043 -1.115594 
dos -1.273768 -1.125210 1.716566 -0.009249 0.459685 -0.328075 -0.050591 -0.112661 0.235133 1.295918 -0.103415 -0.517203 -0.938852 0.735302 0.441213 1.083073 0.551882 0.834531 0.134118 -2.314720 
acuerdo -1.625960 -1.293854 2.186312 0.395570 0.282107 0.284819 0.123573 0.062751 -1.073039 2.118482 0.355984 0.921200 -0.107218 0.571131 0.347093 2.617537 -0.264706 -0.084745 -0.335677 -1.748918 
pues -1.303627 -1.212105 1.430565 0.226139 0.789262 0.814222 0.582668 0.061715 -0.656836 1.030546 -0.261365 -0.609109 -1.526201 0.345063 0.537414 -0.417282 -0.256755 -0.001219 0.055821 -2.449883 
entre -2.103603 -1.399306 0.324600 -0.967375 -0.034277 0.410476 0.830934 1.570692 2.227841 -0.714117 -0.620270 -1.692921 -2.180606 -0.456350 0.504837 2.249430 0.994662 0.859178 0.499971 -1.198035 
esté 1.126009 -0.934284 1.493030 0.785101 0.982155 -0.195442 0.528919 -0.013393 0.555054 1.236057 0.064138 -0.797836 -2.265217 -0.024671 -0.516115 1.565226 0.736732 -1.814029 0.096837 -0.954586 
jhon 0.583922 -0.087913 2.748412 3.826252 2.966355 2.350208 2.592390 0.499499 1.232001 1.637936 -0.286661 -3.604600 -1.528933 2.173345 0.722387 -1.044876 0.624495 -0.408716 0.068148 -2.903582 
buena -0.649957 -0.886313 1.112030 -0.555473 0.328733 -1.334773 0.504951 0.677332 0.954414 1.319281 0.687585 -0.829632 -3.257676 1.371512 0.075109 1.620353 1.474224 0.134783 -1.043268 -1.742858 
comprobar -1.335894 -1.126427 2.143230 0.733984 0.446451 -0.246189 -0.238732 -0.681197 -0.773004 1.315686 -1.670833 0.601251 -2.147578 0.240397 -1.009967 1.832770 0.283197 -1.811342 1.202494 -0.939464 
está -0.790499 -0.057894 1.660632 0.123983 0.353947 -0.050129 1.140302 0.126918 -0.664744 1.850936 0.930065 -0.398477 -1.665063 -0.922997 0.836054 0.484437 0.422102 -1.608736 -0.378643 -2.427025 
puedes -1.022811 0.628162 1.583075 1.047143 -1.043465 1.713744 0.902312 -0.268422 -1.262784 1.927368 0.138542 -0.117995 -0.876206 -0.417530 -1.412115 0.921350 -0.393803 -1.298212 0.666167 -1.516835 
necesito -1.373479 -0.336970 0.633726 -0.439560 0.380861 0.472694 0.748392 0.025986 0.805981 1.054046 -0.687768 0.467347 -1.754592 -0.700601 -0.745428 1.639059 0.555846 -0.938171 0.636017 -1.322580 
ser -0.902527 -1.879686 1.906768 -0.474135 2.159185 -0.577241 0.258927 0.259713 -0.839625 0.614302 0.167374 1.170299 -1.222934 -0.810120 0.678076 1.841100 -0.933991 -0.359370 1.198000 -1.154721 
tipo -0.898457 -1.015157 1.599320 -0.059719 0.834962 -0.541808 0.410066 0.411353 0.148455 2.392182 0.156832 1.214709 -0.635182 0.784945 -0.153798 2.857538 -0.090337 0.054737 -0.169418 -1.888356 
diferencia -0.827299 -0.981270 1.056213 -1.230766 1.517532 -0.800523 0.100926 0.501464 0.928938 1.120678 0.649394 -1.210958 -1.295208 0.811043 1.176999 0.750359 0.350254 0.804262 -0.014445 -3.384360 
asus -1.880862 -0.994884 0.186527 -0.374795 1.336097 0.730733 -0.086701 0.453368 1.888091 -0.027534 -0.435021 -0.885913 -1.139699 0.455006 0.510201 2.419763 0.607213 1.519477 0.549495 -2.404858 
entiendo -0.507853 -0.540286 2.051219 0.029772 0.544078 0.794188 0.777022 0.102653 0.257871 1.546211 0.350102 -0.016353 -1.088605 -1.131609 0.104255 0.489146 -1.161804 -0.974451 0.581238 -1.972941 
stock -0.788566 -0.417094 2.197019 1.124285 0.755683 0.177502 -0.041178 -0.900108 -0.916018 2.275230 -0.061164 -0.822676 -0.475688 0.832469 1.352947 -0.648728 0.249061 -1.113227 0.821312 -3.292587 
feliz -1.708247 -0.489450 1.747560 1.400170 -0.184655 2.725769 1.256778 -0.373391 1.008792 0.334746 -0.651338 -0.740743 -1.230424 0.480043 -0.869671 -0.026755 0.491844 0.910755 0.530067 -0.890248 
tienen -0.947501 0.062541 0.956493 0.298606 1.068813 1.042670 1.162008 0.607707 -0.018637 0.801524 1.501545 -0.548320 -0.592631 -1.987280 -0.393378 1.134808 0.022154 -0.957781 0.113794 -1.753021 
equipos -0.642041 -1.265856 1.806370 0.167240 1.112462 0.382814 -0.191757 -0.130421 -0.147815 0.976869 0.199171 0.026451 -0.344325 0.316051 -0.194653 1.420878 0.433047 -0.473601 -0.170777 -1.332880 
menos -1.458019 -1.362332 1.035885 -0.681120 1.340221 -0.695437 0.877659 1.239752 -0.943955 0.483761 0.007092 -0.844680 -0.830645 0.495142 0.992152 2.043710 0.249713 -0.282582 -0.952014 -2.271785 
2 -0.446936 -1.566770 1.100856 0.713958 1.125562 -0.306551 -0.178284 0.216989 0.176457 1.129730 0.541390 -0.135551 -1.005470 0.980261 -0.042758 2.621279 0.621347 0.458447 0.487381 -1.968015 
consulta 0.426948 -1.835579 1.485214 0.749401 1.034961 -0.878193 -0.115914 -0.252250 1.067979 1.043765 0.037636 -0.482815 -2.461250 2.005384 0.180295 1.264728 0.340504 0.391912 0.678244 -1.993433 
pccomponentes -1.672264 -2.009215 1.977306 1.158936 0.768388 1.079825 0.007348 0.442098 -1.381826 2.804208 0.567827 0.125311 0.605327 0.452172 -0.266781 2.268708 -0.728625 -0.601032 0.794922 -0.487538 
sobre -0.933550 -0.396111 0.629437 0.305104 0.587579 0.813245 1.165585 0.167818 0.560725 0.784870 -0.283711 -0.510621 -1.033022 0.122236 -0.370798 1.381331 0.317492 -0.086393 0.386006 -1.417220 
pregunta -0.508802 -0.973738 0.843802 0.153453 0.624809 0.074576 0.429875 0.133409 0.629560 0.741637 -0.540899 -0.913215 -1.706710 0.823500 0.479475 0.557146 0.018578 0.207714 0.610805 -1.805749 
portátil -1.624904 -0.761904 0.962421 0.347028 0.907219 0.056387 0.310961 -0.453781 0.774616 1.451238 -0.830386 -0.143263 -0.838967 1.006774 0.198691 1.008726 0.630307 0.802545 0.372612 -2.103339 
gráfica -0.507888 -0.809166 1.034179 -0.690424 1.476655 -1.347675 -0.039521 0.229569 0.859906 1.082875 0.716956 -0.502133 -2.196200 -0.148722 0.598942 1.849783 0.692148 -0.504328 -0.437696 -2.008936 
msi -2.130433 -0.775031 0.496043 0.012330 0.852881 0.589201 0.709446 0.236108 1.167118 0.108885 -0.623040 -0.827147 -1.220201 0.693204 0.216561 1.708313 0.529605 1.343250 0.089548 -1.778604 
igualmente -0.678235 -0.667570 0.645344 0.342299 0.264004 0.631151 0.431045 -0.041182 0.110411 0.305433 -0.167798 -0.402814 -0.743493 0.085599 0.012438 0.401454 0.273802 0.025730 0.279827 -0.685508 
juegos -1.865128 -0.400253 0.716273 0.151722 0.627580 0.648949 0.324478 -0.295637 -0.901725 2.366898 -0.784470 1.302274 -1.410303 0.547302 -0.091834 1.297523 0.579513 -1.201846 -0.050988 -1.646462 
mismo -0.451912 -1.237350 1.320928 0.038117 1.080419 -0.179395 0.306550 0.607566 0.067435 1.090950 0.465681 -0.904814 -1.130562 0.396270 0.452490 0.920234 -0.096349 -0.566272 0.775442 -1.813886 
viene -0.506165 -0.543378 1.418493 -0.880761 1.601632 0.262698 -0.115381 -1.315342 1.068581 1.117285 0.856321 0.254002 -1.496932 -1.040842 -0.305417 1.192378 0.049949 -0.902623 0.918329 -2.017825 
veo -0.543831 -0.492030 1.577010 -0.521417 0.753916 0.935381 1.147013 0.243039 0.815580 0.957989 1.028014 -0.999390 -1.242900 -0.866718 0.322564 -0.163091 -0.562446 -0.873093 0.537626 -2.517843 
disco -0.807427 -1.770941 0.548364 0.111848 0.525344 -0.748615 -0.745080 -0.490245 -0.417367 1.702757 0.621460 0.165303 -1.099592 -0.312642 0.501876 2.851163 1.535728 -0.134101 0.189856 -2.107780 
ahora -1.146680 -1.490744 2.155051 -0.271741 0.219148 0.314660 0.383780 0.092141 -0.401076 0.629560 0.064545 -0.674073 -1.383898 -0.282738 0.667988 0.380899 -0.581775 -0.975163 0.461696 -2.229204 
sea -1.228998 0.371211 1.553937 -1.187197 1.244305 0.825002 1.863692 0.804724 1.050004 0.975179 1.169390 0.376417 -1.141094 -1.676183 -0.483178 1.371511 -0.496803 -1.261150 -0.111459 -1.841734 
rendimiento -1.386188 0.045022 0.526471 0.908056 1.919964 -0.493555 0.584378 -0.033763 -0.311407 2.203936 0.879862 0.149082 -1.520858 0.223076 0.399603 2.069955 1.391609 -0.414116 -1.443750 -1.494333 
placa -0.791780 -0.270786 0.892736 -0.036234 1.228206 -0.641680 -0.059728 -0.039943 0.742933 1.537747 0.049202 -0.026755 -1.374017 0.005106 0.308120 1.506492 0.517431 -0.408387 0.747453 -1.838503 
tener -1.428023 -1.155095 1.614465 0.952798 1.683638 0.090595 0.473575 -0.438737 -1.054797 1.258353 -0.170043 0.654313 -0.692645 -0.372506 0.464368 0.998568 -0.378669 -0.446106 0.830249 -1.223946 
buscando -1.983625 -0.592101 0.767360 1.045174 -0.344037 0.817473 2.106428 -0.170870 2.510879 -0.119051 -1.914299 0.054628 -2.495484 0.068211 -1.358657 1.229265 0.055142 1.273123 -0.382939 0.026298 
siento -0.225495 -1.001702 1.595262 0.978778 -0.067157 0.880256 0.273426 -0.836830 0.159056 1.153752 0.058471 -0.301042 -1.182576 -0.380143 -0.281928 0.419778 -0.642223 -1.219728 1.340051 -0.500140 
buen -1.246664 -1.115988 1.092633 -0.008123 0.354892 -0.558240 0.566200 0.518615 0.006803 1.266681 0.342621 -0.147348 -2.193039 0.859965 -0.221106 1.514611 0.903504 0.176256 -0.763331 -0.817638 
gb -1.064695 -2.883107 -1.042211 -0.047629 2.397433 0.215898 -1.323128 0.350850 -0.085595 1.304655 0.539318 0.367173 -1.154526 -0.339441 -1.132454 4.315895 1.523543 1.493601 -0.238440 -1.913564 
quiere -0.461809 -0.384905 1.239348 0.714928 0.811808 1.657547 -0.066209 0.119152 -1.072524 0.663591 -0.203921 0.918003 -1.123179 -1.374491 -0.496437 1.029766 -0.881719 -1.373338 0.964945 -1.374894 
parece -0.452331 0.318775 1.510210 0.007358 1.177733 1.489058 1.805250 0.738003 1.181015 0.771107 0.880968 -0.449574 -1.820387 -1.365140 -1.062843 0.144345 0.041797 -1.271760 0.470303 -1.514392 
aparece -0.581380 -0.185070 1.410871 1.039322 0.876677 1.189942 0.833673 -0.431790 -0.691194 2.167393 0.628607 0.145243 -0.377919 -1.412146 0.123195 0.257532 -0.446709 -1.769867 1.021828 -1.625760 
generación -0.894865 -1.696466 0.339574 -0.647414 1.622797 -0.602518 -0.118835 0.971479 0.129961 1.552588 0.506968 -0.814949 -1.006625 0.901028 0.372030 3.174427 1.036016 0.692615 -0.816527 -1.895546 
tarjeta -0.905744 -0.925969 1.098375 -0.773070 1.085307 -1.042653 0.139152 -0.127285 0.631260 1.146373 0.615575 -0.166577 -1.671539 -0.029243 0.007329 1.926569 0.601741 0.099811 -0.076327 -1.877569 
fortnite -2.071653 -0.455462 0.195339 1.482856 1.258474 1.800328 0.065453 -0.446206 -1.175624 2.352772 -1.490048 0.012918 -0.920049 1.976069 0.777890 0.079021 1.005342 -0.881118 -0.221774 -1.960738 
pone -0.808517 -0.007233 1.286686 0.186757 0.750098 1.443135 1.061673 0.045276 0.374701 1.415219 0.967509 -0.929749 -0.713740 -0.982976 0.736011 0.177293 -0.092875 -1.167683 0.786345 -2.782168 
consultar -0.125674 -1.888760 1.105397 1.787946 1.316066 1.335632 -1.238394 -1.878869 0.377683 1.430009 -0.010086 1.180957 -1.395648 -0.059886 -0.901616 2.922303 -0.024303 -0.498915 2.570451 0.245691 
tambien -0.882126 -0.848104 1.053815 -0.025279 0.348329 0.426025 0.239625 0.023835 0.335405 0.655229 -0.377871 -0.542354 -1.476361 0.566499 0.576150 1.124569 0.711455 -0.317289 0.319026 -1.671612 
tenemos -0.916596 -1.223360 1.824748 -0.344227 0.833467 1.120010 0.883451 0.269943 -0.539660 1.354815 0.312146 0.241630 -1.251045 -1.296813 -0.053529 0.343036 -1.177478 -2.000802 0.924873 -1.818044 
segundo -0.874491 -0.799700 1.431187 0.883734 0.590145 0.733834 0.514988 -0.050188 0.057028 0.675608 -0.239189 -0.755002 -1.157895 0.431504 0.309843 0.405837 0.181609 -0.425014 0.484292 -1.501571 
duda -0.161406 -1.150893 1.549964 1.096752 0.577845 0.005825 -0.021612 -0.322373 0.107196 0.760417 -0.622296 -0.732419 -1.181018 1.233085 0.180564 0.448143 -0.086470 0.002381 0.486104 -1.193962 
modelos -0.448664 -0.582688 2.179071 0.722029 1.037633 0.239063 0.412499 0.209797 0.328223 1.610915 0.200513 -0.302588 -0.775467 0.846898 -0.353569 0.811044 0.383940 -0.302935 0.278902 -1.787150 
pueda -0.876620 1.421522 2.011888 1.230451 -0.118388 1.744628 1.722409 -0.515993 -0.141337 2.556094 -0.232058 1.185482 -1.154604 -0.494622 -2.386522 0.150925 0.166529 -2.219895 0.712294 -0.792571 
entonces -0.853436 -1.067171 1.317938 0.141366 1.101655 0.854677 0.395542 -0.080339 0.075754 0.903394 -0.013526 -0.178302 -1.354093 -0.195054 0.313619 0.528766 -0.310472 -0.317533 0.225139 -1.779873 
podria -1.109979 0.030860 1.058038 0.244736 -0.708380 1.302251 0.803850 -0.064011 -1.043636 1.766904 0.206811 0.003795 -0.982205 -0.376984 -0.537290 0.703666 -0.223769 -0.923497 0.348829 -1.772363 
producto -1.028292 -1.215467 1.865981 1.177296 1.087570 0.523825 0.292191 0.270046 -0.476671 1.503235 -0.140005 0.084335 -0.165712 0.885129 0.085850 1.439257 -0.503598 -0.136327 0.719224 -1.238228 
dejo 0.075252 -0.724767 1.687298 2.503964 0.739333 1.358470 0.047399 -0.724793 0.203468 2.031405 0.180874 2.017180 -1.779252 -1.250523 -1.965844 3.505004 0.600914 -1.730898 1.503072 0.151340 
instalar -0.717491 -1.837881 1.744611 -0.613649 0.977864 0.338744 -0.349385 -1.946852 0.148924 0.367317 -0.337144 0.708329 -1.139025 -0.806107 0.414709 1.500921 0.722919 -0.331651 1.841783 -0.855486 
dar -1.005783 -1.203813 1.415529 1.180310 1.588757 1.121867 0.185672 -0.185204 -1.231547 1.189951 -1.249002 0.948507 -0.701159 0.562459 0.597948 0.681136 -0.517642 -1.245934 1.498429 -0.572338 
paso -0.833162 -1.473769 0.990707 0.786312 0.355235 1.390248 -0.618777 0.589579 -2.125901 1.933378 0.132807 0.808609 -0.272798 -0.772959 -0.818018 2.374810 -0.392409 -1.162203 1.252857 -1.012268 
pantalla -1.011368 -0.731948 1.124360 0.297235 0.863458 -0.312431 0.192460 0.139082 0.414090 1.233857 -0.129511 -0.091801 -1.247801 0.481094 0.488457 1.602231 0.217790 -0.142286 -0.091602 -2.077025 
nuevo -0.309625 -0.806218 1.227874 0.755792 0.652734 -0.118919 0.770281 0.267694 0.124302 1.461855 -0.059606 -1.172553 -0.745299 1.098905 0.950245 1.197038 0.101500 -0.205865 -0.225881 -1.546890 
bueno -0.548976 -0.616721 0.912401 -0.034576 0.353268 -0.060945 0.416934 0.525452 0.363662 1.015908 -0.491922 -1.096379 -1.656769 0.430279 0.575603 0.604369 0.162985 -0.336937 -0.137951 -1.783838 
mirando -1.835029 -0.672541 0.972681 0.761937 -0.338682 0.937464 1.667198 0.011635 2.244714 -0.296484 -1.429699 -0.328886 -1.940325 0.288292 -0.411971 0.788153 -0.370799 1.471051 0.179813 -0.565597 
verdad -0.485751 -0.774598 1.237396 -0.069767 0.492748 0.308659 0.759259 0.461377 0.571016 1.013819 0.193528 -0.797485 -1.356594 0.424620 0.375079 0.734248 -0.276475 -0.076872 0.138436 -1.864134 
lenovo -1.127315 -0.870998 0.704824 0.024732 0.916952 0.419055 0.006937 0.242485 1.179479 0.485642 -0.042010 -1.085518 -1.113827 0.357677 0.427227 1.576590 0.579571 0.511917 0.181355 -1.988122 
gracias -0.845473 -0.771074 0.900145 0.603219 0.397987 0.829527 0.419946 -0.105434 -0.059469 0.523610 -0.208617 -0.738264 -0.878849 0.197940 0.018703 0.359730 0.345905 0.007277 0.223662 -1.363144 
depende -0.666051 -0.367813 2.165692 -0.046490 0.614847 -0.155178 0.948294 0.884852 -0.120507 1.749527 1.049653 0.657087 -0.331606 -0.215763 -0.058717 2.265120 -0.319593 -0.509359 -0.771281 -1.638421 
q -1.034705 -1.306322 1.216757 0.565022 0.328052 0.184587 0.641293 0.157424 -0.032838 0.899942 -0.757665 -1.520528 -1.393321 1.530670 0.979400 0.166960 0.327821 0.023074 0.115424 -1.744408 
lleva -1.021164 -0.459733 1.314307 -0.612177 0.588243 0.662761 1.025988 -0.089021 0.873712 0.331796 0.741124 -0.331104 -1.645079 -1.467275 -0.063415 1.143225 -0.039982 -0.271101 0.725760 -1.903354 
queria -0.921687 -0.550584 0.616151 -0.425987 0.338195 1.338708 0.464844 0.471092 0.906045 0.357782 -1.358483 -0.672562 -1.654650 -0.746006 0.398163 0.284142 -0.084036 -0.201071 1.085992 -1.958522 
características -0.370238 -0.875541 2.230107 0.088047 0.947201 -0.679968 -0.181020 -0.065557 0.060928 1.760983 0.808325 -0.284153 -0.798369 0.393371 0.582174 0.817417 0.341701 -0.901088 0.202632 -1.866888 
ssd -0.761884 -1.926219 0.252400 -0.042919 0.916335 0.228431 -0.158744 0.444960 0.745149 0.381626 0.302055 -0.456411 -1.285286 0.110771 -0.142929 2.868811 0.789752 0.563025 0.096855 -1.350216 
poner -0.673961 -1.382924 1.130669 0.436332 1.658705 0.346567 0.076088 -0.471057 -0.429478 0.535406 -0.241393 0.172866 -1.196265 -0.584334 0.775447 0.806505 0.363446 -0.451821 1.165379 -1.205137 
general -0.445957 -1.342885 0.964481 2.368138 0.491776 1.635842 -0.790447 -0.147325 -1.436681 2.948705 1.578185 0.281793 1.054694 0.687778 -1.452255 3.638931 0.270127 -0.693779 0.668451 -0.080108 
disponible -0.764269 -0.729001 2.171121 0.255246 0.173654 0.393122 0.880605 0.135495 0.187797 0.390000 -0.364511 -0.220319 -1.635619 -0.640919 0.633969 0.232768 -0.840794 -1.218752 0.900648 -1.237085 
podría -0.454863 -0.418882 0.995776 0.766131 -0.014241 1.589882 0.614258 -0.224457 -0.505341 1.173019 0.516367 0.056498 -0.937865 -0.755658 -1.039315 1.032372 -0.052058 -0.729835 0.639781 -1.025795 
1 -1.356567 -1.393036 0.220899 0.875261 0.906750 0.811824 0.221912 0.078254 -0.049534 0.695938 0.240355 -0.293432 -0.794228 0.179905 -0.403139 2.676862 1.221784 0.346483 0.117220 -1.377565 
sobremesa -1.086786 -0.622848 0.394510 0.257261 0.216980 0.317427 0.746539 0.081063 0.607926 1.279737 -0.715510 -0.080008 -0.678120 0.613727 0.156545 1.760223 0.588790 0.279317 -0.420512 -1.341253 
estaba -1.680071 -0.049554 0.220557 0.939459 0.222054 1.712783 0.960733 -0.223000 1.262573 1.011458 -0.477088 -1.117256 -0.844557 0.618321 0.158216 0.009684 1.024417 0.522082 0.188118 -1.921928 
e -1.311900 -1.008657 1.248024 -0.109781 0.527564 0.969012 0.215022 -0.362540 0.037084 0.858405 0.087482 -0.184933 -1.090358 -0.357518 0.022107 0.706715 0.099167 -0.004268 0.460651 -1.726912 
visto -0.624967 -0.993516 1.716533 0.120483 -0.175666 0.382026 0.192599 -0.354927 0.269407 0.717119 0.172079 -1.521116 -1.347741 0.203208 0.685951 -0.526440 0.667552 -0.492125 0.843137 -1.897597 
claro -0.988618 -0.656327 1.455619 0.248214 0.272180 0.870441 0.449324 -0.026011 -0.126083 0.231213 -0.119158 -0.259046 -1.713686 -0.932004 0.102548 0.752700 -0.330738 -0.499680 0.763519 -1.929035 
pro -1.263975 -1.351986 0.119260 -0.613598 1.181656 0.971046 -0.364692 -0.598738 0.805852 0.244813 0.391563 -0.558857 -0.993110 -0.218006 0.085830 2.256001 1.058431 0.824097 0.895570 -1.433921 
trabajar -1.598690 -0.795921 0.681678 0.180195 0.648147 -0.268021 -0.412396 -0.711806 -0.158804 2.034942 -1.873181 0.677131 -2.135515 1.262668 -0.524561 1.608655 1.518883 -0.841952 0.117172 -1.398033 
donde -0.231491 -1.670548 1.531379 0.939368 0.314014 1.028120 0.026102 -0.384846 -0.252115 0.728426 -0.544107 -0.497180 -1.086223 0.721705 0.508967 0.353871 0.065702 -0.260103 1.094487 -0.947913 
desea -0.102291 0.058884 1.636357 1.554758 0.575902 1.599945 0.006428 -0.536087 -0.473999 0.039496 0.012994 0.793695 -1.479679 -1.938184 -0.658087 1.576645 -0.868916 -1.362866 1.353020 -1.240786 
día -1.314945 -0.801740 0.831124 0.990703 0.014272 1.748836 0.661520 -0.487465 0.541901 0.157288 -0.658241 -0.962317 -0.834238 0.081855 -0.118915 -0.279029 0.890951 0.041862 0.587559 -0.918168 
uso -1.403825 -0.429209 1.255837 0.155494 0.665855 0.261215 0.174401 0.142155 -0.432987 1.911835 -0.943666 0.569197 -1.042888 0.427250 -0.443508 1.511388 0.359325 -0.909534 -0.126026 -1.619342 
caracteristicas -0.506478 -0.690039 1.571606 0.069535 1.119675 -0.363582 0.159765 0.055014 0.196598 1.273228 0.379348 -0.114173 -0.870222 0.707204 0.519256 0.825334 0.078777 -0.609558 0.014300 -1.677266 
i -1.754594 -1.231286 0.506770 0.855437 1.153132 1.690035 0.282585 -0.268982 0.494970 0.049904 -0.851761 -0.656161 -1.080810 0.206994 -0.460330 1.411661 0.437386 1.031239 0.432619 -1.332586 
pueden -0.769640 1.053634 1.968127 2.073247 -0.672561 1.958652 1.088792 -0.189741 -1.030989 2.273150 0.846731 -0.124490 -0.079252 -0.561615 -1.876595 0.241339 -0.671086 -1.489780 0.514904 -0.285246 
pasa -0.577868 -0.344049 1.644158 -0.137378 0.295059 -0.184661 0.902671 0.844038 -0.337764 1.323601 0.720331 -0.155196 -0.940018 -1.308343 -0.232456 1.539067 -0.356028 -1.298174 -0.486837 -1.377434 
luego -0.717032 -0.796166 1.187248 0.163914 0.677557 0.201247 0.350410 0.205593 0.287683 0.685899 0.121575 -0.354687 -1.285291 0.491556 0.366674 1.060109 0.396157 -0.791877 0.419421 -1.282190 
pccom -1.888717 -0.945646 -0.254221 0.124804 1.555085 1.673500 0.257461 -0.022759 1.569674 -0.379177 -1.157263 -0.593313 -0.742117 0.597753 0.021617 1.811484 0.479700 1.402094 0.403346 -1.458803 
hace -1.487519 -0.681150 0.959898 0.229190 0.538567 1.267703 1.085695 0.257254 0.196968 0.302623 -0.010637 -0.394077 -1.243924 -1.124714 -0.270324 0.718734 -0.117099 -0.324498 0.384752 -1.323174 
cliente -0.814011 -0.935351 1.736360 0.870296 1.157863 1.364401 0.395880 0.500644 -1.799324 2.622978 0.953205 0.698240 0.060970 0.631568 -1.042379 0.630036 -0.853451 -1.131002 1.820528 -0.886498 
i3 -1.373867 -1.196710 -0.133488 -1.023771 1.315400 0.129951 -0.236682 0.819711 1.009292 0.177155 -0.097067 -0.637762 -1.418294 0.120314 -0.151641 2.411462 0.335694 0.539723 0.154707 -1.386631 
gustaria -0.825054 -0.408196 0.343067 -0.478918 0.322621 1.064624 0.411885 0.530088 0.836050 0.353276 -0.918269 -0.342096 -1.277475 -0.356185 0.440596 0.762864 -0.241454 -0.460433 0.864065 -1.605560 
hasta -0.617740 -1.207782 0.724001 0.520861 0.677737 0.846079 0.204153 0.333296 -0.217452 0.170557 -0.015927 -0.142452 -1.105959 -0.653749 -0.297849 1.997983 0.257100 -0.273213 0.022271 -1.005296 
seria -1.478230 -0.334566 0.908109 -0.109598 0.850376 0.333641 0.707364 0.194049 0.090258 0.631928 -0.273282 0.198496 -1.344524 -1.217339 -0.437511 1.471844 0.312671 -0.604970 -0.377409 -1.390686 
componentes -0.739124 -0.588087 0.366538 0.627186 0.592188 1.206970 0.767263 -0.234097 0.276317 1.105181 -0.334561 -0.415281 -0.656893 0.214816 0.482942 0.535400 0.635103 -0.298114 0.358669 -1.295246 
aunque 0.030320 -1.501765 1.252638 -0.087433 1.360220 -1.075322 0.139672 0.373839 -0.013167 1.115987 0.997595 -0.775400 -1.324753 0.459738 0.264896 1.409940 0.489700 0.095959 -0.067095 -1.803237 
teclado -0.529944 -1.036190 1.414500 0.659118 0.824621 0.071305 -0.427080 -0.695520 1.028465 1.003977 -0.242988 -0.677999 -1.355620 0.729528 0.674929 1.166729 0.777696 -0.190391 0.597324 -1.758030 
procesadores -1.035287 -1.197808 0.665706 -0.437811 1.659703 0.021977 -0.116277 0.354653 0.219488 1.011808 0.322715 -0.118521 -0.339080 0.226560 0.214490 1.791589 0.575416 0.553391 -0.861210 -1.558721 
creo -0.769540 0.128147 1.407892 -0.368578 0.931497 1.520233 1.384590 0.425211 0.852522 0.598368 0.550922 -0.173988 -1.267818 -1.105653 -0.157869 -0.033614 -0.831669 -1.017078 0.256510 -1.986744 
añadir -1.135966 -1.915828 1.323073 0.059355 0.861959 0.396418 0.317060 -0.672829 -0.713597 0.375571 -0.106620 0.520695 -0.741178 -0.397453 0.809211 1.369470 -0.160937 -0.120773 1.618686 -0.682049 
compra -1.217854 -0.898244 1.249672 0.551793 0.107945 0.341996 0.282844 -0.429065 -0.493675 1.378579 -0.474435 0.137978 -0.520268 0.308396 0.331457 1.089292 0.293823 -0.394435 0.382304 -1.436915 
poder -2.174468 -0.447018 1.257279 0.440473 -0.492048 -0.125878 0.346057 -0.248160 -1.461171 2.120207 -1.317762 0.421949 -1.307579 0.529134 -0.996823 1.005416 0.574496 -0.954323 0.779105 -0.797145 
potente -0.364438 -0.736806 0.662007 -0.183115 0.827300 -0.542601 0.362379 0.513535 0.503057 0.722967 -0.107699 -1.180611 -1.831861 0.935047 0.403069 1.163138 0.682604 -0.319925 -0.751598 -1.388929 
necesita -1.048781 -0.281539 0.829565 0.294221 0.327898 1.001608 0.249494 -0.358353 -0.669312 0.868917 -0.106776 0.416819 -1.290225 -0.868675 -1.022516 0.843452 0.169936 -0.913342 0.497685 -1.003456 
sale -1.325051 -0.593036 1.099174 0.505759 0.595324 1.071315 0.900687 0.044846 -0.200997 0.929942 0.033593 -0.214269 -0.596233 -0.525803 0.380204 0.526322 -0.193844 -0.787001 0.538930 -1.432600 
tienes -0.802284 -0.021919 0.943040 -0.116174 0.562757 0.997281 0.810029 0.277951 0.199932 0.708903 0.527221 -0.150960 -1.196755 -1.460479 -0.521075 0.875536 0.024350 -0.937448 0.264476 -1.490234 
3 -1.197641 -1.016943 0.767969 0.682665 1.025403 0.743052 0.444426 0.142007 1.002875 0.525867 -0.084670 -0.772582 -1.098880 0.331693 -0.143019 1.806573 0.566211 0.672164 0.293136 -1.568856 
pasado 0.019410 -0.407848 1.809883 0.305074 0.403623 0.008212 0.501760 -0.010641 0.083570 0.950708 0.517701 -0.035474 -0.962822 0.091363 -0.086707 -0.165483 -0.044726 -0.426989 0.817152 -1.090860 
calidad -1.120094 -0.281977 0.765754 0.924842 0.835963 0.706190 0.887957 0.080125 -0.785718 1.221329 0.406397 -0.823058 -0.805513 -0.024118 0.790662 0.207575 0.875814 -0.503299 -0.808703 -1.728165 
usb -0.959855 -1.179332 0.464401 0.314607 1.019831 0.371073 -0.162550 -0.153468 0.202390 0.959509 0.099845 -0.339542 -0.724685 0.573981 0.052708 1.833635 0.802508 0.144939 0.637982 -1.374252 
ir -1.527894 -1.458042 1.008706 0.078854 1.471158 0.109281 0.125331 0.314858 -1.541288 0.883187 -0.741543 0.654519 -1.198105 0.738638 0.843870 -0.149862 -0.580482 -0.010633 0.844501 -0.910304 
también -0.505875 -1.113377 0.910989 0.214816 0.748001 0.160419 -0.032563 -0.263978 0.354441 0.942963 -0.041979 -0.155533 -1.361420 0.124033 -0.104406 1.490861 0.776214 -0.353996 0.452795 -1.217599 
base -0.615000 -0.754257 1.028704 0.399653 0.783375 -0.292595 0.316671 0.001101 0.748062 0.970031 -0.315392 -0.108691 -1.374767 0.168427 -0.181457 1.640653 0.546701 0.068314 0.070379 -1.004112 
has -0.895385 -0.399092 1.815903 -0.208517 0.410764 1.170121 1.018261 0.064677 0.641302 0.633971 0.545817 -0.428381 -1.254856 -0.484648 -0.010972 0.078001 -0.339817 -0.490444 0.581467 -1.557888 
asi -0.717737 -0.907400 1.095936 0.380612 0.724809 0.573383 0.138458 0.106992 0.068225 0.931411 -0.269868 -0.191429 -1.153796 0.334480 0.063584 1.024119 -0.063405 -0.319340 0.392736 -1.268931 
caso 0.082670 0.197776 1.369061 1.504120 1.109527 0.736355 0.047748 -1.269966 -0.704466 2.523505 0.703553 -0.880485 0.266181 0.755983 0.909571 -0.391674 0.800116 -0.722650 0.239597 -2.695764 
programas -1.388266 -0.583371 1.076512 0.050634 0.681877 0.189595 0.228262 -0.094058 0.183148 1.490560 -0.420970 1.045848 -1.058747 0.169972 -0.305430 2.153923 0.379118 -0.375628 0.208055 -1.346316 
quería -0.901510 -0.339226 0.608445 -0.070956 0.205432 1.106933 0.460394 -0.000035 0.552540 0.406270 -0.870273 -0.649927 -1.436704 -0.703392 0.190757 0.315409 0.225997 -0.245544 0.710314 -1.803362 
ssd/15.6-pulgadas -1.602700 -1.292509 -0.053390 -0.180334 1.325138 1.152526 -0.002785 0.176467 1.181619 -0.459801 -0.604947 -0.460578 -1.065699 0.193608 -0.191377 2.128726 0.383719 0.945563 0.916458 -1.274166 
marca -0.797608 -0.675018 0.881594 0.223902 0.961643 -0.076157 0.066090 0.311269 0.140896 0.933355 -0.195477 -0.581194 -0.722592 0.494291 0.625030 0.611652 0.028163 0.018853 0.318103 -1.545469 
8 -0.957498 -1.620674 0.341415 -0.270837 0.986460 -0.004474 -0.450648 0.451499 0.032341 0.749980 0.600225 0.338205 -0.561920 -0.136510 -0.223145 2.730116 0.538626 0.476681 -0.006857 -1.243474 
rtx -1.212679 -0.764618 0.376733 0.433702 1.209784 0.212752 0.231262 0.193905 0.724228 0.173152 -0.397414 -0.503922 -1.009415 0.019820 -0.329026 1.962980 0.676540 0.685058 -0.092817 -0.955326 
estan -1.383706 -0.474381 0.956593 -0.334755 0.410585 0.520442 0.744764 0.337512 -0.072479 0.916842 0.265523 -0.272810 -1.379786 0.040201 0.350174 0.474344 0.283308 -0.131473 0.317926 -1.674766 
trae -0.487953 -0.669524 0.921028 -0.520475 0.493329 1.007163 0.650324 -0.583081 0.888199 0.396138 0.820911 -0.228856 -1.515595 -1.958996 -0.345557 1.147909 0.035254 -0.519830 0.813077 -1.046270 
monitor -1.510165 -1.053225 0.762676 0.569957 1.128401 0.478919 0.340781 0.055138 -0.619788 1.400198 -0.175028 0.086253 -0.598425 0.691474 0.333839 1.167955 0.115291 -0.059909 0.484383 -1.341959 
alta -0.639146 -0.351605 0.315919 1.422346 1.817320 0.087372 0.119654 -0.128376 -0.524949 2.111564 0.381387 -0.640009 -0.488161 0.747528 0.118570 1.375795 1.024615 -0.046182 -0.936350 -1.651662 
compatible 0.573571 -1.056610 0.676773 0.303874 1.698932 -0.387070 -0.509095 0.102918 0.970855 1.284350 -0.257625 -0.808688 -1.474031 0.927471 0.034477 0.695575 -0.298191 0.207438 0.333012 -1.753794 
potencia -0.907064 -0.231661 0.609362 0.299595 0.517001 -0.082523 0.427338 0.076594 0.221777 1.229967 0.470436 -0.094707 -1.138573 0.673689 0.352532 1.326835 0.972300 -0.188617 -0.714905 -1.317713 
sería -1.064840 0.016758 0.907434 0.392170 0.751780 0.358210 1.017484 0.042387 0.060107 0.319564 -0.027784 -0.127213 -1.000727 -1.330983 -0.535585 1.347461 0.375663 -0.712185 -0.380264 -1.053097 
ah -0.501860 -0.670375 0.958233 0.099082 0.141281 0.517324 0.417839 0.101917 0.143201 0.177181 -0.114653 -0.700935 -1.160345 0.050510 0.140419 0.379080 0.055349 -0.371759 0.284152 -1.168433 
home -0.662508 -1.752143 0.291036 -1.287524 0.896934 1.048033 -0.453223 -0.623859 0.633500 -0.045928 0.765457 -0.213578 -1.485963 -0.584802 -0.008404 2.111349 0.944818 0.266887 0.903282 -0.943475 
carrito -1.576975 -1.101360 0.975371 0.518826 0.862104 0.264902 0.264954 -0.154417 -1.397977 1.548841 -0.210403 0.258890 -0.055164 0.769427 0.818408 0.410878 0.048158 -0.414812 1.172571 -1.199310 
instalado -0.285163 -1.590290 1.285836 -0.618490 0.283614 0.352027 -0.444649 -1.230470 0.589524 0.271020 0.450554 -0.534107 -1.334948 -0.446061 0.257222 0.786357 0.575245 0.066733 0.983243 -1.266151 
ni -0.714562 -1.236578 0.878048 -0.287084 0.591136 0.242790 0.114043 -0.260555 0.014806 1.214851 -0.226228 0.090829 -1.262820 -0.264732 -0.317936 0.976416 -0.030969 -0.429145 0.405262 -1.439411 
dice -0.485820 0.117182 1.066205 -0.017626 0.711142 1.512603 1.233691 0.402746 0.800702 0.631243 0.626452 -0.148384 -0.913249 -0.672744 -0.196952 0.544169 -0.320531 -0.929286 0.344687 -1.427192 
antes -1.302494 -0.651935 1.551953 0.142224 0.458133 0.664018 0.758531 0.262788 -0.169568 0.942595 0.091288 0.150671 -0.662936 0.099898 0.121814 1.027511 -0.146824 -0.085618 0.091909 -1.433376 
gustaría -0.790961 -0.291369 0.419981 -0.425774 0.503687 1.029222 0.592039 0.371653 0.692095 0.631434 -0.386993 -0.323629 -1.154029 -0.556731 0.318005 0.557645 -0.125491 -0.203494 0.674270 -1.835454 
tienda -0.841006 -0.286417 0.874431 1.383152 0.944526 0.892810 0.019034 -0.778875 -0.932897 1.824598 0.184529 -0.157635 0.401176 0.627203 0.615126 0.682883 0.205720 -0.468676 0.875106 -1.156164 
drivers -0.782817 -0.820477 1.483303 0.225163 0.284415 0.118360 -0.149597 -0.562406 0.030807 1.215646 -0.126785 0.320456 -0.543359 -0.175613 0.054930 1.285376 0.231376 -0.437133 0.760041 -0.909468 
igual -0.559920 -0.656061 1.011800 0.191310 0.522854 0.481368 0.508096 0.125918 0.271694 0.557786 0.148604 -0.653978 -0.754071 0.156500 0.343487 0.811855 0.061147 -0.292641 0.257241 -1.240395 
5 -1.731237 -0.967585 0.305752 0.002784 0.952338 0.913741 0.313780 0.214475 0.608915 0.083599 -0.121938 -0.881420 -0.783195 0.155864 0.110446 1.667086 0.642134 0.720476 0.343930 -1.573325 
posible 0.181857 -0.778664 0.299964 0.306914 1.027206 0.281265 -0.108923 0.336418 0.449839 1.052695 -0.224886 -1.185067 -1.152632 0.779908 0.076145 0.354651 -0.001603 0.067725 0.461217 -1.619608 
reacondicionado -0.003195 -0.739238 0.802228 0.284096 0.806614 0.525213 0.239910 0.402998 0.690018 0.751186 -0.308614 -1.090519 -0.944527 0.318311 0.431106 0.335402 -0.014957 -0.078168 0.145604 -1.664076 
era -1.284853 -0.065293 0.970870 0.112123 0.515078 1.104769 0.908216 0.026161 0.053248 0.336380 -0.133046 -0.368337 -1.131920 -0.957474 -0.238543 0.436972 0.215211 -0.703106 0.284036 -1.538582 
soy -1.153834 -0.582534 1.240849 0.161669 0.069714 0.317412 0.525362 -0.002266 0.347619 0.641449 -0.391199 -0.092446 -1.122504 -0.031574 0.188911 1.415012 0.282926 -0.288871 -0.070015 -1.265579 
ejemplo -1.438845 -1.241933 0.625972 -0.319928 0.559958 -0.089709 0.056774 0.052782 -0.827861 0.394364 -0.066750 -0.495004 -0.747908 0.297361 0.143575 0.846286 0.449318 0.037144 0.236404 -1.966273 
digo -0.716193 -0.693234 1.001067 0.109610 0.297926 0.229142 0.275568 0.085040 -0.307132 0.626424 0.056869 -0.427812 -1.086148 -0.252009 0.196586 0.662007 0.092495 -0.442379 0.287103 -1.438705 
generacion -0.655833 -1.283714 0.697748 -1.157067 1.131379 -0.333620 -0.113398 0.547868 0.455678 0.931324 0.795404 -0.303390 -0.742876 0.136375 0.080575 2.410953 0.312446 0.583855 -0.570663 -1.354086 
instalación -0.363013 -1.196096 1.231753 -0.176012 0.377837 0.410327 -0.282553 -1.019934 0.122877 0.868529 0.266768 0.183356 -0.502665 0.145823 0.176751 1.760908 0.085157 -0.129997 0.623796 -1.055673 
trabajo -1.133384 -0.658597 0.744230 0.320369 0.674031 -0.199130 0.009115 0.011172 -0.207125 1.600003 -0.749934 0.040330 -0.974497 0.891621 0.018048 1.337172 0.625482 -0.359427 0.021904 -1.380217 
16gb -0.714310 -1.180476 0.380390 0.159755 1.206896 -0.157788 -0.278313 0.086705 0.166251 0.956022 0.326675 -0.230679 -0.762255 0.195684 -0.125967 1.967070 0.785762 0.263457 -0.180756 -1.378377 
opción -0.520942 -0.638223 1.249504 0.441298 0.413074 -0.015280 0.215746 -0.181564 -0.256068 1.170468 -0.008262 -0.120413 -0.682911 0.303383 0.381863 0.772424 0.077692 -0.184918 -0.121208 -1.446030 
16 -1.135966 -1.544580 0.130232 -0.477761 0.958612 -0.483948 -0.517934 0.439146 -0.226841 0.889341 0.378464 0.496628 -0.536374 0.050584 0.078813 2.651938 0.329604 0.486562 0.086537 -1.064668 
oferta -0.719505 -0.205592 1.315865 0.351383 0.594073 -0.013308 0.369464 -0.276187 -0.304621 1.106008 0.099385 -0.172269 -0.736001 0.193326 0.562060 0.144682 0.168868 -0.742042 0.351211 -1.385796 
ayuda -1.033076 -0.952477 1.154062 -0.010724 0.183718 0.096884 0.177791 -0.024763 -0.518590 0.718100 -0.115812 -0.136083 -0.736682 0.334021 0.129206 0.503372 0.214629 -0.207088 0.179275 -1.552437 
opciones -0.634007 -0.449646 1.529124 0.671544 0.346185 0.401227 0.100477 -0.670898 0.227269 0.985723 -0.304593 -0.099472 -0.906879 0.305893 -0.126960 0.694522 0.777184 -0.418916 0.401563 -1.277308 
cosa -0.561973 -0.480128 0.932934 0.214622 0.569559 0.797567 0.663146 0.234145 0.630622 0.391493 -0.066062 -0.498360 -1.061122 0.144477 0.144417 0.532162 -0.239478 -0.159182 0.486854 -1.055253 
gama -0.440084 -0.628023 0.432061 1.083088 1.411483 -0.604049 0.727443 0.888097 0.643956 1.287237 0.550764 -0.723797 -0.739463 1.206058 -0.016414 2.895741 0.303368 0.777007 -1.362573 -0.631626 
amd -1.057505 -1.089028 -0.014082 -0.368765 1.518983 0.761388 0.132172 0.384842 0.995526 -0.195864 -0.323485 -0.716974 -0.745978 0.128740 0.187927 1.571517 0.453791 0.452934 -0.176121 -0.815913 
almacenamiento -0.603399 -1.237774 0.925366 -0.109130 0.452957 -0.440877 -0.034048 0.163020 0.313482 0.764769 0.566700 -0.119834 -0.938430 0.177245 0.453444 2.240619 0.708254 -0.030966 -0.430788 -1.190940 
mayor -0.706915 -0.922428 0.465015 0.754474 1.280911 -0.157765 0.111914 0.322380 -0.103265 1.087712 0.413396 -0.152534 -0.802583 0.215893 -0.293917 2.085836 0.570757 0.035671 -0.032691 -1.070490 
fecha -0.392260 -1.506550 1.736086 -0.075247 0.176303 -0.264103 -0.120458 0.132809 -0.292970 1.061294 0.114992 -0.255680 -0.669072 0.139131 0.790797 1.239202 -0.331086 -0.725858 0.587173 -1.813838 
8gb -0.522178 -1.239870 0.333601 -0.154953 1.114753 -0.231458 -0.224558 0.343454 0.021393 1.155036 0.492689 -0.215649 -0.770273 0.416688 0.213636 2.019612 0.522909 0.436725 -0.558429 -1.644999 
acceso -1.437109 -2.199639 1.788232 0.247537 0.467434 0.026792 0.525043 0.811171 -1.313813 0.834199 -0.253781 -0.222998 -0.644822 0.348534 0.363133 -0.009549 -1.134972 -0.417920 1.641247 -0.557718 
directamente -0.542463 -0.921854 0.472324 1.350451 0.895787 1.590006 -0.283302 -1.167299 0.215565 1.314799 0.130804 0.640141 -0.825339 -0.088492 -1.029394 1.849205 0.155348 -0.167935 1.325918 0.012050 
video -1.381167 -0.768888 0.840654 0.122781 0.072318 -0.319379 0.025145 0.156193 -0.129193 1.555326 -0.364054 0.381960 -0.627030 0.698784 0.323921 2.688878 0.721263 -0.214829 -0.116652 -1.242592 
comunicar -0.213462 -1.165439 0.859086 1.193849 1.308583 0.631247 -0.823944 -1.247663 0.373132 0.886611 -0.129156 0.726189 -0.846068 -0.102148 -0.813075 1.688438 0.104383 -0.350945 1.346107 -0.151692 
x -1.429588 -1.333988 0.392699 1.065054 1.159571 1.453569 0.500994 0.153694 0.046343 0.338927 -0.458769 -0.292840 -1.102473 0.072399 -0.770917 1.733296 0.427287 0.246260 0.507840 -0.816413 
respuesta -0.958134 -0.422062 0.649090 0.482442 0.331568 -0.056645 0.487792 0.275736 0.040199 1.112030 0.413165 -0.273113 -0.988003 0.276545 0.257204 1.764338 1.055356 0.003319 -1.007970 -0.948292 
desde -0.927875 -0.967787 0.764103 0.441426 0.598303 1.160886 0.665967 -0.010162 0.466962 0.326964 -0.299187 -0.358673 -1.084726 0.026978 -0.179602 1.025276 0.044996 0.098939 0.558616 -0.927185 
tarde -0.827049 -0.447958 0.756276 0.524976 -0.077470 1.012102 0.682276 -0.366414 0.568953 0.171441 -0.303932 -0.759252 -1.030446 -0.079102 -0.093372 -0.297872 0.782390 0.168969 0.091398 -0.769930 
suficiente -0.235518 -0.719350 0.757563 -0.043305 0.655510 -0.204988 -0.204318 -0.054904 0.353587 0.599452 -0.600350 -0.319007 -1.468816 0.600485 -0.258738 0.535362 0.114218 -0.240783 0.463834 -1.274335 
pedido -0.967389 -0.662434 1.020675 0.548264 0.232162 0.773307 0.661296 0.058409 -0.114685 0.775740 -0.102739 -0.263993 -0.646756 0.332710 0.303782 0.772310 -0.046835 -0.273454 0.599822 -1.019001 
pertenecemos -1.555381 -2.212355 0.599028 -0.571613 1.420433 1.107607 0.193788 0.832889 -1.282241 0.662643 -0.157468 0.530963 -0.121638 -0.964577 -0.051021 -0.313021 -1.415521 -0.396802 0.938368 0.125761 
tiempo -0.916403 -0.659338 1.001709 0.446295 0.747794 0.400503 0.399876 0.076427 -0.156997 0.809454 -0.264046 -0.516572 -0.760770 0.241799 0.303025 0.516235 0.214133 -0.348429 0.074174 -1.457025 
atención -0.949358 -1.304985 1.197973 0.450219 0.774045 0.560572 0.075618 0.374324 -1.286773 1.278869 0.210880 0.610310 -0.013026 0.281856 -0.306536 1.040630 -0.608390 -0.087083 0.879427 -0.689816 
4 -0.676493 -1.169433 0.524206 0.210680 1.183602 -0.010867 -0.080682 0.089509 0.063831 0.860318 0.258701 -0.211657 -0.652239 0.524116 -0.021505 1.458674 0.413456 0.403380 0.336685 -1.331971 
duro -0.078840 -1.443941 0.135058 0.384529 0.616361 -0.079446 0.087313 -0.052490 0.086419 0.607629 0.452124 0.063261 -0.942910 -0.277302 -0.262279 1.527443 0.759574 0.490839 0.062735 -0.887942 
cual 0.114511 -0.758864 0.628348 0.451073 0.778881 0.075730 0.308125 0.344248 0.602704 0.935820 -0.188783 -0.853853 -0.972175 0.922329 0.113380 1.143466 0.343747 0.105895 -0.228639 -1.000155 
tal -0.711411 -0.080618 0.753627 0.535409 0.195650 1.159210 0.801557 0.189637 0.481943 0.515015 -0.110562 -0.552597 -0.894682 0.055681 -0.023696 0.488168 0.218189 -0.580827 0.225898 -0.849596 
años -0.467722 -0.946645 0.533983 0.222181 0.694423 -0.071638 -0.025829 0.186903 0.167783 0.394880 0.077214 -0.386900 -0.771107 0.320175 0.197524 1.294135 0.463906 0.074782 0.059690 -1.103593 
ampliar -0.092531 -1.535944 0.581479 0.574709 1.199749 -0.091662 -0.541530 0.035933 -0.699604 0.169142 -0.342841 0.435788 -0.973846 -0.632079 0.299018 1.350820 0.189536 -0.045044 0.523570 -0.860352 
recomendar -0.344503 -0.861259 0.550057 0.682850 1.071879 1.017328 0.415200 -0.024092 0.209746 -0.195758 -0.710581 -0.074221 -0.897789 -0.362121 0.345976 0.379522 0.092628 -0.143360 0.552536 -0.673494 
dia -0.766744 -0.490841 0.793521 0.196023 0.245491 0.739982 0.397013 -0.124013 0.252795 0.744216 0.026373 -0.655819 -0.961088 0.209078 0.144911 0.024355 0.733546 -0.034717 -0.052468 -1.145767 
conectar -1.038699 -1.180586 0.853301 0.613836 1.164102 0.006994 0.009840 -0.210651 -0.295829 0.241924 -1.045004 0.325837 -1.104042 0.100483 0.376860 0.731902 0.065493 -0.122517 0.902534 -0.784450 
portatiles -0.978786 -0.644792 0.841911 -0.029881 0.649569 0.035057 0.135791 -0.071450 0.366704 0.654398 -0.335622 -0.194213 -0.865321 0.195175 -0.038365 0.894294 0.333506 0.356232 0.258418 -1.534689 
torre -0.971345 -0.365016 0.696109 0.000212 0.308132 0.208841 0.240529 -0.202086 0.082731 0.909302 -0.395773 -0.070889 -0.790896 0.080807 0.091734 0.771675 0.326560 -0.170653 0.107069 -1.410340 
exacto -0.427429 -0.341927 0.590948 0.110532 0.127367 0.191674 0.201392 0.080698 -0.118529 0.180876 -0.065075 -0.226163 -0.637151 -0.247820 0.026103 0.302354 -0.090723 -0.072225 0.210437 -0.674332 
pase -0.552045 -0.069394 0.978972 0.050767 0.720275 0.889869 0.835683 0.288203 0.055169 0.791974 0.599345 0.232918 -0.562974 -0.674187 -0.551881 0.407807 -0.379228 -0.584929 0.268581 -1.035188 
velocidad -0.922184 -0.486125 0.837232 0.380458 1.018087 -0.456775 0.402840 0.253693 -0.266422 1.370308 0.602659 0.235903 -0.622555 0.154188 0.228037 1.680546 0.403321 0.118111 -0.851875 -1.134493 
cambiar -0.649732 -0.960690 0.813132 0.297699 0.713271 0.357024 0.062147 -0.179783 0.103913 0.388510 -0.485568 -0.213579 -0.934178 -0.030994 0.354805 0.702060 0.104260 -0.008531 0.818963 -1.067662 
mirar -0.622933 -1.128348 1.016140 0.510572 0.826682 0.796171 0.191282 -0.078104 -0.287512 0.143604 -0.503658 0.267564 -0.770541 0.313579 0.460511 0.262975 -0.374550 -0.299612 0.521254 -0.612517 
usar -1.219918 -1.015516 0.635194 0.325640 0.582505 0.251655 -0.115512 -0.254446 -0.422508 0.992112 -1.129656 0.414895 -1.309942 0.374449 -0.158174 1.102365 0.541862 -0.287975 0.638008 -0.969547 
problemas -0.670899 -0.821260 1.051969 0.152490 0.280798 0.699668 0.040168 -0.530325 0.260938 0.798419 -0.276544 0.293283 -0.897269 -0.347427 -0.154484 0.669859 -0.115989 -0.188860 0.647050 -0.961091 
viendo -1.084588 -0.373520 0.638407 0.332349 -0.307483 0.836648 0.974199 0.010281 1.495255 -0.310660 -0.692533 -0.357383 -1.184878 -0.163910 -0.092810 0.735313 0.001615 0.472289 0.046313 -0.467988 
® -1.941793 -1.364449 -0.303410 0.104376 1.626322 2.028785 0.349579 0.110152 1.711469 -0.664869 -0.457401 -0.799854 -1.458090 -0.360084 -0.762089 2.895433 0.931899 1.398530 0.154006 -1.311457 
manejamos -0.052675 -0.927154 0.899270 0.757746 0.316474 1.222854 -0.189226 -1.188080 0.301026 1.562637 0.536967 0.546468 -1.310289 -1.932410 -0.903525 0.779188 -0.839664 -0.980331 1.447800 -0.535432 
diseño -1.047808 -0.528575 0.585813 0.207969 0.244324 -0.085523 -0.052453 -0.069210 0.062660 1.141678 -0.548459 -0.042958 -0.760866 0.358577 -0.075064 1.688466 0.983997 -0.480355 -0.170109 -0.996878 
teléfono -0.520092 -0.126430 1.204258 0.861492 0.030586 0.205726 0.124291 -0.301438 -0.045286 1.106690 -0.249346 1.016563 -0.707149 -0.067671 -0.676780 1.864151 0.514858 -0.978923 0.415772 -0.353290 
vez -1.157082 -0.587999 0.683563 0.519851 0.920239 0.734418 0.519217 0.048420 -0.692736 1.045794 -0.123574 -0.046473 -0.635704 0.284124 0.439809 0.259058 0.163894 -0.244303 0.704026 -1.409799 
contactar 0.217965 -0.794908 1.338699 1.704635 1.316796 0.492604 -0.259698 -0.846381 -0.162046 0.173875 -0.711441 0.835365 -0.483306 0.402293 0.058549 0.571145 0.014038 -0.521428 1.012741 0.211610 
miro -0.619503 -0.633205 0.734799 0.247972 0.174857 0.715515 0.274772 -0.070045 0.119113 0.221576 -0.099267 -0.280433 -0.953789 -0.458975 0.111777 0.542195 0.066449 -0.173959 0.330474 -0.864451 
preguntar -0.744609 -0.509161 0.837202 0.422977 0.467247 0.444682 0.060295 -0.283013 0.175183 -0.311363 -0.700940 0.044966 -0.934175 -0.546099 0.416727 0.200462 -0.124888 0.105684 0.764618 -1.174042 
encargados -0.071465 -1.441957 1.341158 1.203601 0.201191 0.235333 -0.452245 0.377219 -0.486137 1.573959 0.822561 0.211442 0.561779 0.914213 -0.595468 2.014998 -0.082815 0.098586 0.573712 0.226225 
busco -0.726214 -0.297490 0.444009 0.107191 0.492351 0.718879 0.859332 0.176172 0.608079 0.317815 -0.290312 -0.228650 -1.108454 -0.056849 -0.400231 0.627961 0.145731 -0.223415 0.142528 -0.702885 
cosas -0.890755 -0.724323 0.824913 0.396586 0.551131 0.367442 0.236123 0.030856 -0.300656 0.909196 -0.264753 0.153331 -0.568083 0.253649 -0.096639 0.869584 0.235699 -0.340656 0.203174 -0.860075 
productos -0.699894 -0.995014 1.241893 0.592174 0.641747 0.479669 0.232598 0.127383 -0.693963 1.136775 0.283519 0.084072 0.143265 0.531760 0.568729 0.513169 -0.303757 -0.318006 0.697286 -0.876550 
i9 -0.874723 -0.920851 0.253239 -0.651107 0.975828 0.095919 -0.052793 0.431338 0.358054 0.412540 0.137912 -0.410354 -0.880736 -0.189655 -0.254855 1.859581 0.508770 0.208826 -0.367282 -1.018969 
enviar -0.055265 -1.167172 0.929043 0.805987 0.941665 0.614175 0.021546 0.008670 -0.263210 -0.112974 -0.496868 0.518166 -0.722380 -0.410679 0.285240 1.186625 -0.156737 -0.297171 1.028180 -0.199187 
espero -0.776042 -0.409032 1.050031 0.460718 0.111332 0.787159 0.483763 -0.148589 0.152477 0.479712 -0.391944 -0.341019 -0.914731 0.151793 -0.299986 0.242587 0.213099 -0.276039 0.367059 -0.845652 
temas -0.192093 -0.526504 1.138575 0.916924 0.352665 0.194150 -0.188650 -0.619614 0.036246 1.219913 0.163140 0.378226 -0.292379 -0.137529 -0.495969 1.214831 0.078437 -0.561507 0.550307 -0.286898 
ª -0.998225 -1.472506 -0.083163 -1.373043 0.963823 -0.121063 -0.456735 0.458029 -0.061553 0.495249 0.766887 -0.327765 -0.984156 -0.401521 0.021785 2.514074 0.816931 0.645537 -0.398674 -1.152653 
misma -0.311465 -0.983866 0.700162 0.151783 0.650844 -0.600621 0.137769 0.689281 0.214409 0.567274 0.477168 -0.558108 -0.652719 0.358259 0.162510 1.686281 0.310330 0.161278 -0.097603 -0.950903 
podrias -1.227581 0.067444 1.047824 0.654142 -0.456692 0.786276 1.009965 0.410330 -0.631747 1.023976 -0.412860 -0.443670 -0.534467 0.153101 -0.601321 0.277517 -0.134049 -0.290103 0.164077 -0.705261 
indicar -0.374811 -0.794155 1.181612 0.873755 0.716395 0.862264 0.063276 -0.394047 -0.266055 0.366113 -0.285504 0.068032 -0.654317 -0.779737 0.054766 0.224872 -0.385398 -0.373301 0.752334 -0.772852 
buscar -0.511842 -0.688276 0.851038 0.629832 0.754367 0.535343 0.143756 -0.136513 -0.232082 0.419784 -0.299049 0.042139 -0.606883 -0.139482 0.011701 0.581798 0.024983 -0.416308 0.710094 -0.425972 
sé -0.463924 -0.540820 0.956398 -0.032619 0.109983 0.630463 0.164713 -0.036550 0.100198 0.589869 -0.132330 -0.411906 -1.461105 -1.624724 0.090582 -0.097484 -0.686003 -0.371992 0.580527 -1.638002 
aqui -0.509275 -0.380101 1.228143 1.010557 0.402046 0.954074 0.540427 -0.334205 -0.324929 0.640056 -0.160005 -0.294176 -0.600468 0.067287 -0.211111 0.161001 -0.235093 -0.436623 0.506586 -0.698921 
dudas -0.401115 -0.662397 0.907721 0.742050 0.283279 0.386380 -0.017329 -0.272191 0.262661 0.456185 -0.341169 -0.370146 -0.610895 0.496190 0.041137 0.657477 0.434059 -0.035938 0.205997 -0.807283 
cantidad -0.585668 -0.887711 0.855617 0.323950 0.761443 -0.404474 0.257925 0.546332 0.210803 1.057622 0.587882 -0.268784 -0.403445 0.482507 0.161544 2.257522 0.473614 0.244479 -0.301049 -1.309848 
tema -0.424372 -0.678035 0.991862 0.405003 0.424397 -0.206033 -0.193758 -0.041804 -0.143566 1.256257 -0.193672 0.130078 -0.453938 0.672092 0.039804 1.335850 0.100295 -0.157849 -0.106668 -0.991233 
recomiendas -1.162408 -0.155470 0.540537 -0.155723 0.405317 0.528097 0.656744 0.155021 0.172137 0.431591 -0.072586 0.074211 -0.700632 -0.468918 -0.490669 0.735110 0.337919 -0.293695 0.147403 -0.742775 
hora -1.719866 -1.055518 0.968324 -0.562756 0.597953 -0.437241 0.478033 0.283704 -1.136264 1.528195 0.082326 1.078838 -0.041956 0.802523 0.558547 1.256341 -0.647517 0.235975 0.902606 -0.862935 
estamos -1.137661 -0.257692 0.926055 0.306105 -0.041550 0.086382 0.220855 -0.312737 -0.256055 0.746101 -1.040436 -0.126460 -0.981031 0.132491 -0.528788 0.434421 0.547771 -0.588410 0.244809 -0.848768 
siempre -1.066461 -0.693639 0.776272 0.274281 0.510238 0.576946 0.289630 -0.079686 0.139482 0.469707 -0.778308 -0.112560 -1.134271 0.122893 -0.246903 0.684534 0.553244 -0.311188 -0.000475 -0.722470 
carlos -0.422854 -0.277066 0.543603 0.178350 0.217072 0.400731 0.473813 -0.047321 0.270021 0.277798 -0.119112 -0.370464 -0.692444 0.214661 -0.109550 0.199672 0.097677 0.087240 0.206309 -0.694968 
sabria -0.786916 -0.804336 1.473568 0.034930 0.155386 0.476244 0.129250 -0.071033 -0.786037 1.099812 -0.246531 -0.333578 -0.945818 -1.291594 -0.094896 -0.208016 -0.622084 -0.797085 0.636860 -1.396889 
pagina -0.463531 -0.420395 0.918807 0.982161 0.625339 0.591305 0.223264 -0.264346 -0.281842 1.319141 0.207021 -0.391761 0.193481 0.467377 0.428282 0.376352 0.285556 -0.077888 0.242862 -1.293153 
15 -1.143836 -0.613058 -0.036180 -0.005188 0.750635 0.886964 0.114861 0.052964 0.994355 -0.128734 -0.303303 -0.516447 -0.742511 -0.260826 -0.028208 1.429248 0.500703 0.776651 0.163806 -1.270726 
así -0.234314 -0.540087 0.922211 0.492760 0.652153 0.632015 0.539785 0.165336 0.283520 0.569536 0.124623 -0.396389 -0.818319 0.059926 0.015874 0.598112 -0.061181 -0.333892 0.211057 -0.967514 
interesado -0.750168 -0.027797 0.145354 1.531610 0.249619 1.427252 0.797866 -0.914533 0.643373 0.968607 -0.527837 -1.211259 -0.591584 0.427690 0.206534 -0.381798 1.023588 0.349016 -0.167224 -1.347539 
acer -0.835536 -0.560437 0.397328 0.278835 0.783253 0.810862 0.375562 0.057433 0.680534 0.101183 -0.092354 -0.598590 -0.631264 0.057876 -0.136175 0.969779 0.263437 0.435777 0.102312 -0.988936 
chat -0.648008 -0.546538 0.743927 0.478118 0.557908 0.460106 0.238018 0.134261 -0.116943 0.877830 -0.353396 -0.332408 -0.582807 0.459805 -0.031969 0.586838 0.019181 -0.347334 0.508484 -0.849036 
super -0.806743 -0.678143 0.171831 0.079714 0.485462 0.633633 0.252252 0.211343 0.597029 0.205902 -0.154651 -0.676098 -1.116493 0.306276 0.090443 1.181677 0.452986 0.208316 -0.080333 -0.973492 
parte -0.980338 -0.744800 0.980843 0.197740 0.674727 0.011572 0.345461 -0.096719 -0.612999 1.142250 0.160265 0.115541 -0.149171 0.314149 0.577500 0.637029 -0.110507 0.018255 0.531925 -1.179388 
saludo -0.686288 -0.375077 0.604122 0.305463 0.094746 0.766037 0.436698 0.070929 0.160610 0.276869 -0.141141 -0.430959 -0.817889 -0.156947 -0.030202 0.273350 0.255805 -0.165770 0.119147 -0.789729 
deja -0.894810 -0.691467 0.756377 0.057024 -0.033697 1.214616 0.399709 -0.402027 0.072015 0.670563 -0.392830 -0.179122 -0.980806 -1.160037 0.055614 -0.065724 -0.368246 -0.593968 0.663669 -1.116659 
* -0.518036 -0.570883 0.604517 0.330932 0.507992 0.630502 0.421351 0.125982 0.166161 0.510543 -0.079484 -0.395418 -0.745317 0.133832 -0.134154 0.617230 0.054718 0.002281 0.181054 -0.991861 
da -1.030836 -0.633734 0.801786 0.210065 0.432228 0.751917 0.646431 0.129445 -0.209180 0.472529 -0.017914 -0.277353 -0.984520 -0.512263 -0.066411 0.676303 -0.020492 -0.377892 0.372583 -1.123794 
entrada -0.320504 -1.174695 1.369134 -0.012980 0.179993 -0.337684 -0.059188 0.182477 -0.383366 0.658248 0.240843 0.093947 -0.338766 0.426720 0.550947 1.587059 -0.404101 -0.354363 0.473621 -1.197803 
noche -0.803741 -0.437936 0.591716 0.776143 -0.114496 1.268667 0.500874 -0.325954 0.505003 -0.003304 -0.441644 -0.797610 -0.789431 0.056272 -0.159821 -0.202963 0.745936 0.018430 0.297276 -0.667186 
momento -0.500097 -0.463955 1.299212 0.763953 0.551431 0.170946 -0.040665 -0.388642 -0.613838 1.672337 0.077393 0.032314 0.139316 0.045621 0.771777 0.373507 -0.025356 -0.143950 -0.179496 -1.650317 
sabes -0.582301 -0.389234 0.872269 0.340225 0.550947 0.607169 0.462135 0.117296 0.019356 0.133062 -0.242966 -0.010854 -0.904923 -0.526174 0.032437 0.319528 -0.471519 -0.150805 0.369164 -1.091189 
numero -0.319580 -0.649700 0.900454 0.697498 0.243305 -0.103369 -0.113972 -0.110945 0.065287 1.401854 0.202245 0.871122 -0.387640 0.235589 -0.245498 2.297516 0.386136 -0.131294 -0.046822 -0.633122 
ghz -1.026947 -0.899071 0.291835 0.188220 1.117521 0.244675 0.123193 0.276742 0.396199 0.432345 -0.176145 -0.432631 -0.704662 0.485143 0.168432 1.659118 0.290243 0.636205 0.135042 -1.161528 
quisiera -0.533736 -0.303766 0.484792 -0.079894 0.294894 1.001486 0.292403 0.029808 0.562510 0.129414 -0.467999 -0.396022 -1.112808 -0.708069 0.208582 0.237611 0.027409 -0.196647 0.676786 -1.176282 
correcto -0.287024 -0.562321 0.526749 0.311273 0.393854 0.192617 0.064138 0.113482 0.226429 0.398786 -0.303501 -0.491481 -0.891885 0.190789 -0.013598 0.627847 0.104276 -0.073454 0.237601 -0.801518 
juego -0.922251 -0.364581 0.497631 0.254543 0.675485 0.332330 0.229840 0.003885 -0.255738 0.909314 -0.353158 0.268264 -0.636302 0.136937 -0.006014 0.768985 0.163693 -0.296042 0.158685 -0.986674 
normal -0.442613 -0.820570 0.550566 0.296982 0.682323 0.355005 0.380810 0.252629 0.020060 0.556416 -0.209174 -0.583103 -0.788863 0.515117 0.203342 0.734329 0.076819 0.032781 0.217242 -0.904798 
gusta -0.819978 -0.570689 0.793121 -0.003158 0.438715 0.609908 0.653713 0.202502 0.303410 0.254403 -0.140141 -0.230998 -1.157706 -0.331878 -0.052204 0.557295 -0.201312 -0.160845 0.248582 -0.975152 
disculpe -0.698197 -0.216594 0.885425 0.259302 -0.275258 0.634856 0.531998 0.013072 -0.050672 0.482825 -0.042722 -0.330262 -0.868605 -0.488602 -0.241193 0.102305 -0.161426 -0.474211 0.555591 -0.711636 
office -0.703040 -0.763117 0.523347 0.024356 0.292930 0.619083 0.101262 -0.213432 0.581554 0.272026 -0.250115 -0.174519 -0.901653 0.059464 -0.126962 1.179873 0.311714 -0.073925 0.547166 -0.655785 
opcion -0.384581 -0.695195 0.923203 0.018256 0.384392 -0.056192 0.065979 -0.063659 0.130242 0.841812 0.098473 -0.213387 -0.555516 0.084846 0.237035 0.710845 -0.009891 -0.124085 0.072986 -1.289842 
servir -1.254032 -0.423636 0.922217 0.344719 0.117423 0.244636 0.157735 -0.390227 -0.049189 0.482941 -1.298642 0.138057 -1.264137 0.087762 -0.512184 0.590900 0.648109 -0.375867 0.200769 -0.801996 
pavilion -1.221846 -0.687099 -0.042161 0.009402 0.657719 1.088623 0.265935 0.029152 1.284766 -0.184136 -0.706612 -0.387581 -0.810463 0.178530 -0.076565 1.205414 0.310073 1.075761 0.368955 -1.261310 
nucleos -0.566165 -0.891797 0.322399 0.331842 0.711090 -0.254039 0.075612 0.432730 0.276122 0.494951 0.372333 -0.295087 -0.688218 0.287145 -0.056424 2.163692 0.663855 0.021264 -0.425492 -0.815761 
perdone -0.362539 -0.148099 0.939753 0.396272 -0.068314 0.582754 0.586500 0.097747 0.186496 0.857704 0.048906 -0.448307 -0.737609 -0.062244 -0.057849 -0.336675 -0.240997 -0.420667 0.546235 -0.644869 
ryzen -1.084211 -0.596378 0.075597 -0.279030 1.036256 0.427843 0.062528 0.295572 0.616951 0.128817 -0.188450 -0.306727 -0.646590 -0.073058 -0.086913 1.511369 0.348604 0.522647 -0.015858 -1.093765 
frecuencia -0.729902 -0.351734 0.504550 0.938640 1.184424 0.091246 0.430679 0.157548 0.120813 0.919598 0.338521 -0.681496 -0.546465 0.126138 0.049985 1.642965 0.797807 0.020712 -0.562625 -1.091388 
pagar -0.751430 -0.687806 0.788036 0.357340 0.659360 0.477391 0.331820 -0.033102 -0.235812 0.405899 -0.246593 0.064649 -0.506598 -0.024190 0.308888 0.560455 -0.079875 -0.326315 0.538313 -0.617795 
sino -0.845438 -1.084849 0.443108 0.419333 1.035408 0.968104 0.206067 -0.057821 -0.310081 0.658368 -0.292908 -0.288975 -0.544427 0.073177 0.187410 0.386266 0.025474 -0.076406 0.653080 -0.857465 
geraldine -0.568942 -0.513312 0.636171 0.299069 0.250879 0.539775 0.350803 -0.042865 0.124177 0.085750 -0.242751 -0.338689 -0.695665 -0.002739 -0.010610 0.347582 0.189407 0.010938 0.188391 -0.629330 
maximo -0.862822 -0.733405 0.234089 0.300271 0.706301 0.330243 0.415912 0.399980 -0.391418 0.678554 -0.126931 -0.300052 -0.623131 0.166255 0.060066 0.854378 0.235541 0.008222 0.008227 -0.828103 
javier -0.503147 -0.380050 0.396202 0.234948 0.302502 0.553604 0.392669 0.046711 0.243909 0.237056 -0.243518 -0.357961 -0.644307 0.021961 -0.105670 0.203246 0.041633 0.104800 0.169386 -0.618026 
genial -0.486838 -0.431340 0.585255 0.097025 0.142454 0.334030 0.269836 0.011949 0.048589 0.157342 -0.181131 -0.447509 -0.891527 0.078084 0.009669 0.253104 0.141751 -0.175136 0.053753 -0.756676 
escoger -0.563909 -0.428934 0.978300 0.542934 0.484638 0.387377 0.352349 -0.329860 0.072524 0.538467 -0.578472 0.340405 -0.916495 0.019295 -0.416985 0.337735 0.366471 -0.445412 0.599401 -0.421810 
hdmi -0.726497 -0.875622 0.346550 0.606570 0.572312 0.583290 0.196013 0.068715 0.313293 0.275611 -0.188991 -0.439333 -0.961056 0.192384 -0.234716 1.337963 0.499225 0.137773 0.206175 -0.963995 
aparte -0.406867 -0.360738 0.604175 -0.288105 -0.067224 0.674577 0.426075 -0.265363 0.659737 0.345464 0.272479 -0.143363 -0.611306 -0.114216 0.008652 0.629830 -0.000192 -0.045074 0.143754 -0.769806 
vaya -1.070290 0.117953 0.709881 -0.163770 0.503878 0.813455 1.000202 0.323776 -0.069172 0.578737 -0.036451 0.184330 -0.745851 -0.353226 -0.171111 0.074245 -0.044783 -0.685858 0.309097 -0.950561 
gtx -0.874204 -0.558439 -0.021716 0.243605 0.866755 0.460161 0.189826 0.169220 0.560351 0.151619 -0.013913 -0.504115 -0.828290 -0.176310 -0.263483 1.527910 0.477199 0.389751 -0.019044 -0.772404 
esque -0.535174 -0.863938 0.711717 0.124551 0.324002 0.214667 0.170805 0.020735 -0.256833 0.471341 -0.189181 -0.331675 -0.696969 0.195895 0.240810 0.164442 -0.172138 -0.076700 0.324622 -0.810101 
cuenta -0.219191 -0.056974 0.437988 0.663974 0.853741 0.848745 0.207961 -0.318178 -0.249671 1.198551 0.388400 -0.418656 -0.118924 0.403642 0.078296 -0.142955 0.399033 -0.353796 0.364014 -1.306404 
iria -1.304727 -0.418266 0.273955 0.195732 0.494846 0.617577 0.409489 0.046717 -0.547071 0.745540 -0.349602 0.175456 -0.763149 0.123594 0.038348 0.423171 0.092750 -0.076693 0.096452 -0.801614 
atencion -0.840831 -1.124538 0.810504 0.256398 0.726259 0.702960 -0.082994 0.374914 -1.047935 1.120585 0.169190 0.549254 -0.027462 0.175717 -0.270097 0.925339 -0.417100 -0.238224 0.843472 -0.648305 
ahi -0.131147 -0.722958 0.755274 0.586022 0.199117 0.500453 0.085775 -0.121608 -0.010730 0.594356 0.129854 -0.398618 -0.608932 0.409398 -0.114885 0.625053 0.137607 -0.199717 0.238876 -0.573656 
aquí -0.254446 -0.635123 0.746686 0.627786 0.429011 0.552995 0.234124 -0.374442 0.174716 0.580012 -0.063006 0.002303 -0.936656 -0.017307 -0.424447 0.772187 0.150388 -0.122139 0.478017 -0.561530 
minimo -0.674364 -0.620941 0.313246 0.408334 1.331476 -0.010355 -0.298932 -0.140292 -0.281530 1.236341 0.147459 -0.064173 -0.330265 0.580779 0.039799 0.890950 0.415334 0.090993 0.055308 -1.277025 
so -0.755645 -0.714873 0.865250 -0.039526 0.324849 0.566336 0.109224 -0.414960 0.355260 0.397976 0.029001 -0.032152 -0.807836 -0.294458 -0.063142 1.066128 0.159215 -0.176807 0.427466 -0.961646 
ademas -0.496034 -0.299493 0.729257 -0.177592 0.496398 0.105848 0.386516 0.224372 0.064060 0.656638 0.295436 0.087506 -0.941751 -0.137621 -0.115181 0.799805 0.041365 -0.163370 -0.259291 -1.040848 
perdon -0.410227 -0.343721 0.397946 0.283792 0.454965 0.392020 0.222205 -0.016322 0.241657 0.394289 -0.077134 -0.304967 -0.544340 0.179585 -0.017451 0.456573 0.144439 0.171822 0.013235 -0.893474 
dentro -0.521837 -0.569893 1.193179 0.564475 0.434909 0.026778 0.447825 0.255805 -0.195137 0.756661 0.075936 -0.034202 -0.131146 0.392165 0.349463 1.186503 -0.143386 -0.024374 -0.407736 -0.871296 
similar -0.794951 -0.689609 0.395083 -0.041659 0.478356 0.324002 0.282868 0.266633 -0.135437 0.448724 -0.230022 -0.328708 -0.809219 0.317186 0.237207 0.695821 0.124293 -0.149270 0.281628 -0.621869 
garantía -0.284349 -0.565171 0.643840 0.450701 0.340550 0.146863 0.052212 -0.012033 0.138152 0.569193 0.234502 -0.203658 -0.350136 0.187457 0.229854 1.018533 0.214788 -0.046818 0.088792 -0.886289 
600 -0.643347 -0.826395 0.220966 0.036679 0.597896 0.220702 0.280517 0.420495 -0.259257 0.573695 -0.115050 -0.335889 -0.400875 0.121909 0.186063 0.939700 0.084791 0.087526 -0.261710 -1.068040 
ultimo -0.457131 -0.449114 0.918478 0.077589 0.332237 0.324907 0.315518 0.079293 0.213716 0.369122 0.058398 -0.347202 -0.856785 -0.105409 0.168583 0.468539 0.192640 -0.470410 0.206663 -0.837633 
amable -0.835210 -0.039612 0.818208 -0.072676 -0.015865 0.458248 0.592076 0.144067 0.067999 -0.046205 0.241327 -0.151856 -1.296276 -0.508901 0.027543 0.334635 0.332282 -0.230224 -0.481765 -0.844178 
nvidia -0.649772 -0.626721 0.181132 0.214276 0.977663 0.189221 -0.037433 0.063563 0.557626 0.481262 0.020412 -0.372096 -0.625899 0.237892 -0.095683 1.417170 0.393839 0.549489 -0.206451 -1.011306 
número -0.402596 -0.594406 0.886956 0.403254 0.457825 -0.178989 0.117192 0.157398 0.001090 1.100173 0.253188 -0.056733 -0.231451 0.303659 0.127848 1.319090 0.150496 0.004432 -0.153442 -1.038549 
primero -0.193790 -0.609618 0.708408 0.059308 0.543781 0.344193 0.318876 0.034541 0.371876 0.451039 0.287121 -0.344029 -0.805750 0.168162 -0.037304 0.742753 0.141435 -0.125925 0.098760 -0.869361 
caja -0.356169 -0.335297 0.750011 0.253256 0.408541 0.226427 0.037315 -0.284429 0.122713 0.726398 0.015547 -0.362220 -0.596763 0.036084 0.201738 0.268796 0.305730 -0.237370 0.211504 -1.082048 
han -0.794019 -0.558380 0.956089 0.216608 0.430222 0.677786 0.516790 0.095034 0.334599 0.320500 -0.255852 -0.577149 -1.008219 -0.129980 -0.096321 0.423870 0.239859 -0.350823 0.375654 -0.972709 
estar -0.784720 -0.708173 0.780095 0.588893 0.528984 0.572115 0.278735 -0.251142 -0.520470 0.486124 -0.338586 0.041168 -0.489110 0.163752 0.287223 0.237063 -0.172825 -0.261894 0.983251 -0.732113 
encuentro -0.611687 -0.264298 0.702530 0.242897 0.354240 0.781430 0.249467 -0.172344 -0.109157 0.914336 -0.035815 -0.035201 -0.397708 -0.983349 0.020788 -0.251644 -0.277703 -0.608240 0.230061 -1.090866 
estudiar -0.968251 -0.428071 0.293392 -0.066528 -0.209457 0.317949 0.141321 -0.112302 0.000125 0.699855 -1.206657 0.239289 -1.246409 0.442506 -0.340020 1.107237 0.600657 -0.501293 0.100766 -0.513283 
este -0.445972 -0.574932 0.658556 0.259040 0.306927 0.239875 0.327498 0.204885 0.262986 0.388877 -0.153838 -0.542519 -0.719389 0.338031 0.171224 0.796744 0.167863 0.074889 -0.070475 -0.916893 
dicho -0.230157 -0.267646 0.948420 -0.035445 0.239595 0.514448 0.611985 0.199675 0.346021 0.340017 0.272475 -0.535097 -0.820827 -0.106317 -0.185787 0.018674 -0.027569 -0.486764 0.291654 -0.783503 
wifi -0.445200 -0.747671 0.565702 0.091377 0.494349 0.233418 0.067821 -0.036391 0.296224 0.293255 -0.157518 -0.208872 -0.928475 0.051051 -0.020567 0.734355 0.067531 -0.072041 0.266825 -0.945398 
especificaciones -0.468475 -0.426815 0.762839 0.252601 0.513375 0.325980 0.092110 -0.255892 0.129491 0.739503 0.020303 -0.219501 -0.465396 0.113404 0.108904 0.167205 0.107380 0.014597 0.234479 -1.150441 
van -0.760254 -0.369205 0.655333 0.406669 0.537118 0.434742 0.548508 0.211126 -0.659453 0.775198 0.168057 -0.053027 -0.399780 0.057245 -0.140993 0.009990 -0.365810 -0.148273 0.667258 -0.590048 
ordenadores -0.533068 -0.402294 0.679743 0.130874 0.296300 -0.215886 -0.045139 -0.096249 -0.324443 0.772014 -0.118418 -0.063680 -0.139356 0.313167 0.303056 0.584136 0.051443 -0.024317 0.166940 -1.051398 
realizar -0.665122 -0.918126 0.585191 0.591565 0.780301 0.567041 0.134719 -0.292119 -0.323009 0.419240 -0.485866 0.271074 -0.586841 0.077640 0.124815 0.631970 0.025677 -0.286409 0.650059 -0.469018 
ssd/rtx -1.092136 -0.775104 0.223528 0.082695 0.892403 1.059746 0.256419 0.067451 0.941301 -0.190857 -0.354897 -0.514224 -0.996694 -0.070651 -0.295952 1.291791 0.277710 0.556947 0.276091 -1.052265 
tendria -0.759526 -0.187662 0.834484 -0.153805 0.367251 1.254896 0.836664 -0.071742 0.339370 0.536303 0.251910 -0.124418 -0.910515 -0.789707 -0.415620 0.292714 -0.175860 -0.732370 0.522585 -1.009521 
800 -0.581714 -0.674586 0.344042 -0.001168 0.569037 -0.038860 0.044338 0.240320 -0.375940 0.558934 -0.240524 -0.124680 -0.431939 0.083500 0.134442 0.758744 0.131652 0.005973 -0.068662 -0.917285 
agentes -0.267373 -0.492152 0.942497 1.192489 -0.050766 0.781536 0.189944 0.158460 -0.254691 1.078920 0.632505 -0.148370 0.286820 0.310639 -0.704405 1.293035 -0.041969 -0.253663 0.287883 0.104371 
pago -0.485746 -0.752925 0.921599 0.473483 0.269684 0.247467 0.259358 -0.007531 -0.177277 0.572808 -0.074753 -0.243170 -0.434539 0.498886 0.220996 0.775028 0.169735 -0.212941 0.324572 -0.883321 
1000 -0.573413 -0.596734 0.093814 -0.184343 0.424714 0.069321 0.247501 0.363615 -0.056816 0.327881 -0.079874 -0.207865 -0.359544 0.238636 0.151622 0.943236 0.150373 0.228590 -0.171070 -0.884307 
haber -0.733790 -0.422348 0.823801 0.566035 0.087977 0.881799 0.408042 -0.134612 0.061066 0.135914 -0.324452 -0.223397 -0.859423 -0.158995 -0.177001 0.285160 -0.076572 0.025181 0.373839 -0.662340 
comprado -0.551730 -0.543103 0.509787 0.332499 0.370103 0.294975 0.130118 -0.084283 0.100741 0.383409 -0.185609 -0.361675 -0.605259 0.292291 -0.056999 0.293644 0.359380 -0.082146 0.247812 -0.566359 
rog -1.094527 -0.485890 -0.031284 0.187816 0.721326 0.875375 0.134929 0.065200 0.957474 -0.339983 -0.539399 -0.572119 -0.835312 -0.086995 -0.346628 1.179606 0.455047 0.851801 0.389716 -1.014812 
llevan -0.423902 -0.360189 0.464567 -0.080016 0.710030 0.773612 0.340904 0.119542 0.262651 0.446275 0.649280 -0.033459 -0.608821 -0.914940 -0.491085 0.738460 0.053238 -0.238952 0.270352 -0.885398 
dell -0.673720 -0.556429 0.375551 0.358529 0.542640 0.582434 0.185038 -0.051280 0.558544 0.154025 -0.260867 -0.472260 -0.664125 0.183400 -0.038841 0.908086 0.368035 0.185914 0.155940 -0.836972 
diferentes -0.057105 -0.498006 0.727671 0.660009 0.509642 0.286712 -0.147508 -0.162592 0.079785 0.906189 0.007089 0.140418 -0.498141 0.462580 -0.282096 0.827339 0.413836 -0.294580 0.315728 -0.647615 
tampoco -0.187163 -0.662035 0.797560 0.150728 0.471665 0.213919 0.278934 0.119036 0.264350 0.407322 -0.039402 -0.592648 -0.716682 0.436215 0.306640 0.234631 -0.132874 -0.169678 0.302713 -0.872175 
están -0.578773 -0.448150 0.816643 0.114973 0.327216 0.687098 0.481112 0.029105 0.310450 0.468564 0.028616 -0.477169 -0.941906 -0.272369 -0.058645 0.114429 0.054835 -0.286070 0.549462 -1.064286 
financiar -0.517417 -0.472377 0.794510 0.659585 0.189991 0.214521 0.254673 -0.195126 -0.134666 0.229435 -0.358923 0.111427 -0.277540 0.187009 0.119624 0.760204 0.227185 -0.292371 0.224215 -0.520273 
artículo -0.518328 -0.470383 0.661609 0.689625 0.561286 0.662979 0.366974 -0.081898 0.368038 0.335118 -0.157666 -0.456499 -0.521256 0.281610 0.025308 0.738581 0.130147 0.108729 0.058028 -0.845111 
perdona -0.502248 -0.409146 0.838894 0.294592 0.201861 0.666977 0.376744 -0.012830 0.277564 0.164414 -0.083822 -0.462614 -0.743887 -0.082901 -0.019765 0.354414 0.080542 -0.139406 0.161514 -0.848275 
indica -0.202154 -0.133143 0.554474 0.335302 0.646815 0.600981 0.414913 0.104816 0.261029 0.570230 0.347091 -0.226310 -0.544049 -0.339435 -0.296557 0.272375 -0.021122 -0.266635 0.209798 -0.867645 
14 -0.878496 -0.692935 0.245156 0.179978 0.615212 0.660270 0.208759 0.251036 0.469809 0.171287 -0.157446 -0.399527 -0.489379 0.221009 -0.016310 1.220333 0.226269 0.499127 0.153219 -1.007254 
podran -0.432456 0.301322 0.994257 1.457749 -0.974739 0.730993 0.682608 0.293618 -0.667971 1.279092 0.511793 -0.607474 0.372948 0.355582 -0.986403 0.919729 0.126460 -0.595990 -0.148879 0.282138 
enlaces -0.418570 -0.345274 0.951715 0.479151 0.255928 0.401280 0.232557 -0.094557 0.032485 0.575178 -0.162866 0.189939 -0.622251 0.028229 -0.336124 0.786455 0.227469 -0.379346 0.322041 -0.578848 
revisar -0.511264 -0.693750 0.539315 0.397419 0.462128 0.533150 0.163397 -0.030441 0.122960 0.303121 -0.255471 -0.264356 -0.644498 -0.121645 -0.059733 0.496989 0.090212 0.035843 0.290583 -0.590744 
turbo -0.507896 -0.267887 0.326460 0.920066 0.991116 0.026665 0.385488 0.203523 0.152300 0.762636 0.149040 -0.770712 -0.542864 0.171224 0.088605 1.241815 0.801658 -0.006540 -0.492564 -0.848050 
dedicada -0.314450 -0.384303 0.458752 -0.195406 0.275597 -0.177090 0.076823 -0.047721 0.228767 0.421482 0.048901 -0.354651 -1.116897 -0.331093 -0.023825 0.303179 0.204106 -0.275671 0.196992 -0.965423 
datos -0.646640 -0.563476 0.935595 0.397414 0.336314 0.144431 0.256406 -0.015127 -0.122313 0.762263 0.085498 0.009627 -0.301072 0.259610 0.224415 1.052602 0.085230 -0.087183 0.094720 -0.871623 
caro -0.574042 -0.314382 0.553677 -0.157775 0.319372 0.278486 0.569041 0.164324 -0.065569 0.128446 0.076443 -0.316444 -0.839066 -0.332301 0.105634 0.055765 -0.105401 -0.244234 -0.048937 -0.804968 
parecido -0.428543 -0.620094 0.371234 0.082596 0.541568 0.087722 0.229577 0.128301 0.026606 0.632668 0.023509 -0.657690 -0.709080 0.478996 0.349926 0.301090 0.149112 -0.067870 0.327665 -0.693744 
encontrar -0.128325 -0.514390 0.784568 0.514804 0.782803 0.546420 0.255125 -0.202150 0.128852 0.063296 -0.115438 0.157190 -0.651493 -0.249079 0.228053 -0.005715 -0.169217 -0.362634 0.551479 -0.568240 
2060 -0.686250 -0.426316 0.196137 0.066906 0.525158 0.227138 0.165448 0.162472 0.229366 0.351853 0.057841 -0.258446 -0.592579 0.032893 -0.055131 1.075264 0.318384 0.141491 -0.094321 -0.721611 
vistazo -0.967264 -0.559379 0.548890 0.324130 0.305601 0.663396 0.284395 -0.001895 -0.259477 0.389376 -0.318751 -0.122350 -0.675256 0.072551 0.076044 0.355394 0.167251 -0.179484 0.384570 -0.567556 
enviado -0.145724 -0.433866 0.878771 0.134381 0.169524 0.307590 0.216895 -0.073188 0.269505 0.525797 0.157535 -0.365112 -0.763778 -0.140352 -0.172085 0.122553 0.217961 -0.201387 0.417337 -0.812362 
silver -1.087391 -0.637388 -0.007970 -0.077169 0.569293 0.861849 0.198819 0.101272 0.855990 -0.393321 -0.513506 -0.376183 -0.611578 0.003172 -0.149811 1.102721 0.198003 0.682990 0.177824 -0.632801 
ssd/gtx -1.019615 -0.629224 0.202369 0.380857 0.989251 1.224437 0.331784 0.002786 0.793522 -0.158454 -0.430396 -0.516214 -0.838464 -0.015875 -0.282201 1.123372 0.356886 0.486128 0.332881 -0.974328 
núcleos -0.494399 -0.623693 0.473668 0.077800 0.436951 0.094818 0.215537 0.295534 0.412841 0.164278 0.268798 -0.166742 -0.573712 0.043790 0.038029 1.410246 0.398331 0.076855 -0.088006 -0.654545 
ahí 0.299187 -0.626471 0.831985 0.670214 0.186366 -0.006296 -0.233918 -0.439878 0.222557 0.648082 0.383781 0.138584 -0.699098 0.304817 -0.142510 0.583485 -0.026982 -0.319825 0.312426 -0.310190 
incluido -0.406103 -0.636402 0.524627 -0.190631 0.384561 0.443978 -0.015686 -0.439895 0.334482 0.085097 0.175109 -0.185607 -0.628669 -0.398239 -0.119392 0.718196 0.217281 -0.030635 0.417456 -0.618799 
10th -0.356899 -0.405049 0.281106 -0.089523 0.626271 -0.507166 0.053428 0.519292 0.033834 0.786362 0.322299 -0.145604 -0.183306 0.397854 0.160816 1.543710 0.200498 0.327531 -0.624910 -0.742943 
mira -0.478512 -0.307047 0.594414 0.206932 0.257568 0.521761 0.491913 -0.060571 0.264266 0.196963 -0.171885 -0.326887 -0.771127 -0.118872 -0.156092 0.261154 0.039551 0.010313 0.128279 -0.792067 
compre -0.631546 -0.367919 0.282724 0.048148 0.320833 0.618279 0.433365 0.063232 0.431282 0.186835 -0.126824 -0.280358 -0.602962 0.012571 -0.053783 0.532612 0.184804 0.103805 0.260898 -0.747503 
justo -0.690304 -0.719508 0.788955 0.526563 0.363785 0.487652 0.303849 0.150920 -0.473244 0.672179 -0.101921 -0.310341 -0.349744 0.462710 0.331248 0.512280 -0.024541 -0.079915 0.213360 -0.956986 
servicio -0.605975 -0.480537 0.524385 0.367835 0.395696 0.301972 0.027458 -0.010322 -0.158312 0.602783 -0.275996 -0.003530 -0.125322 0.440118 0.027431 0.941538 0.116356 -0.206762 -0.000303 -0.459745 
perfectamente -0.348879 -0.215028 1.011956 0.719104 0.101323 0.409654 0.398012 -0.047752 -0.092510 0.678863 0.078965 -0.418052 -0.611633 0.168502 -0.290050 0.412578 0.137414 -0.279050 0.132420 -0.637316 
utilidad -0.633848 -0.204451 0.812643 -0.007875 0.533363 0.548833 0.557587 0.514988 -0.193539 0.676989 0.073963 0.298284 -0.374440 -0.078117 -0.195226 0.356575 -0.383763 -0.507819 0.347146 -0.674982 
tenia -0.508774 -0.187383 0.400734 0.241627 0.475162 1.000939 0.540151 -0.132942 0.489355 0.364076 0.124190 -0.597046 -0.558691 -0.199921 -0.019041 0.231612 0.398492 -0.230893 0.197589 -0.834083 
similares -0.435387 -0.494496 0.996073 0.272613 0.240040 -0.087755 0.361626 0.298423 0.072470 0.477623 0.217029 -0.357913 -0.581187 0.057639 0.080183 0.780653 0.169533 -0.155693 -0.020266 -0.402420 
idea -0.188927 -0.533895 0.664100 -0.004053 0.072898 -0.024879 0.031660 -0.095814 0.184132 0.586447 -0.121430 -0.211408 -0.517320 0.386321 0.297322 0.502881 -0.112602 0.059255 0.004759 -1.034329 
500 -0.657251 -0.775905 0.138302 -0.001632 0.489729 0.382043 0.312913 0.341909 -0.151449 0.311981 -0.062262 -0.181830 -0.482938 0.108068 0.103087 0.945493 0.167087 0.104378 -0.063906 -0.713169 
somos -0.823988 -0.814564 0.441358 -0.188927 0.283692 0.521534 0.061592 0.275525 -0.284508 0.251360 -0.017303 0.310517 0.240733 0.036515 -0.045042 1.195084 -0.221269 -0.151568 -0.354951 0.068157 
vas -1.205990 -0.317179 0.536283 -0.029642 0.503214 0.295670 0.631157 0.176129 -0.663517 0.805790 -0.088057 0.219183 -0.854328 -0.302629 -0.125922 -0.015285 -0.221057 -0.272767 0.618140 -0.831449 
llamar -0.514201 -0.777780 0.630187 0.532616 0.442528 0.340363 -0.192834 -0.318997 -0.431963 0.425912 -0.367193 0.477650 -0.451800 -0.026360 0.010636 0.816098 -0.216258 -0.254089 1.087343 -0.001153 
respecto -1.011380 -0.808197 0.469555 -0.043897 1.281505 -0.431964 0.067251 0.081518 -0.731557 0.708840 0.055657 0.495917 -0.353972 0.464038 0.113743 0.275503 -0.439577 0.194405 0.849767 -0.445052 
empresa -0.740659 -0.461507 0.543068 0.026487 0.179184 -0.211063 -0.014960 0.003677 0.050256 0.588865 -0.530325 -0.020888 -0.549008 0.474813 -0.128170 0.981515 0.383741 -0.177434 0.096479 -0.632238 
32 -0.471046 -0.889743 0.081063 -0.053480 0.557945 -0.138396 -0.260009 0.153148 -0.289317 0.761194 0.216146 0.211920 -0.328726 0.145182 -0.025673 1.228215 0.226897 0.384046 0.112395 -0.778316 
gastar -0.416110 -0.445895 0.602540 0.237611 0.528066 0.141170 0.205055 0.079146 -0.059772 0.379383 -0.239019 -0.147244 -0.476230 -0.137538 -0.083391 0.336400 0.152355 -0.056592 0.080392 -0.790857 
digame -0.346224 -0.091753 0.381873 0.209890 0.215871 0.352573 0.234401 0.019649 -0.003475 0.255751 -0.137489 -0.283635 -0.624143 -0.170515 -0.091058 0.158198 -0.013109 -0.122121 0.151868 -0.733088 
quieres -0.562989 -0.138571 0.604779 -0.152414 0.194278 0.637053 0.462507 0.245713 0.020737 0.315875 0.102679 0.220082 -0.692411 -0.529207 -0.273395 0.627836 -0.240756 -0.375216 0.195127 -0.726618 
hoy -0.769368 -0.375221 0.573767 0.411527 0.468530 0.470659 0.256698 -0.130495 -0.083294 0.473401 -0.091808 -0.222753 -0.438688 0.011351 0.122932 0.267984 0.164107 -0.084595 0.424517 -0.803366 
you -1.057725 -0.868111 0.598443 0.877043 0.628672 1.537163 0.450202 -0.213001 0.463283 0.026019 -0.453337 -0.600955 -0.998421 -0.015628 -0.391472 1.085461 0.377092 0.349067 0.352107 -0.939839 
integrada -0.007766 -0.597970 0.447357 -0.113646 0.490463 -0.334689 0.034782 0.084286 0.176341 0.517839 0.164887 -0.343942 -0.758151 0.320821 0.176367 0.596942 0.028861 0.151776 0.020125 -0.832376 
graficas -0.472537 -0.470416 0.692527 0.317537 0.525010 0.239576 0.295309 0.051257 0.205563 0.449008 0.123476 -0.245981 -0.502249 0.354588 0.040628 0.652270 0.202233 0.009115 -0.002462 -0.746623 
semana -0.658629 -0.456484 0.638955 0.195733 0.231255 0.250493 0.284692 -0.030536 -0.059639 0.582015 0.029115 0.001047 -0.213694 0.239039 -0.042459 0.481254 0.156769 0.085596 0.248740 -0.466300 
hecho -0.345873 -0.571774 1.000776 0.371141 0.371577 -0.098905 0.175299 0.176413 -0.033616 0.598628 0.129957 -0.290146 -0.336212 0.490586 0.159508 0.692665 -0.077186 0.062524 0.086040 -0.851263 
falta -0.432611 -0.292656 0.677242 0.101742 0.282915 0.379290 0.487955 0.009577 0.182409 0.322289 -0.021372 -0.294251 -0.561923 -0.212779 0.030415 0.161463 -0.027238 -0.208819 0.222060 -0.684622 
g7 -1.014400 -0.691810 0.111531 0.156938 0.599977 0.718423 0.227841 0.168444 0.696802 -0.141256 -0.358215 -0.458656 -0.525741 0.029789 -0.118569 1.287553 0.339762 0.543543 0.238121 -0.810397 
baja -0.819460 0.011524 0.186850 1.214624 0.631338 1.084863 0.380261 -0.396122 -0.418943 0.873900 -0.218002 -0.763002 -0.129129 0.511277 0.484775 -0.207252 0.793894 -0.242007 0.098862 -1.022143 
suerte -0.529021 -0.403626 0.570781 0.076582 0.009931 0.133571 0.055954 0.065448 -0.115317 0.551293 -0.189062 0.068691 -0.488351 0.497347 -0.060255 -0.085918 0.191504 -0.224276 0.390016 -0.126253 
piezas -0.883385 -0.603792 0.617744 0.021601 0.363240 0.414068 0.422785 0.031597 -0.207482 0.368785 -0.257476 -0.132322 -0.805027 -0.126708 0.028079 0.260959 -0.030336 -0.163091 0.608581 -0.830923 
s -0.771063 -0.561327 0.386864 0.064325 0.501653 0.589046 0.182718 -0.141095 0.122098 0.185137 -0.132052 -0.254116 -0.701476 -0.354312 -0.066136 0.480445 0.201181 0.077528 0.337945 -0.782168 
montar -0.720536 -0.486586 0.375277 0.089532 0.345139 0.463773 0.195885 -0.164848 0.064313 0.212619 -0.381589 -0.017043 -0.665687 -0.250672 -0.095296 0.429318 0.202424 -0.163542 0.451350 -0.607714 
bronze -0.873052 -0.412240 -0.129105 0.020738 0.657263 0.845132 0.162229 0.097099 0.845182 -0.249690 -0.460478 -0.338612 -0.500277 0.102661 -0.102423 1.031076 0.284938 0.616311 0.066614 -0.642003 
strix -1.112919 -0.647268 0.042459 0.183765 0.736049 0.912181 0.090051 -0.125424 0.972476 -0.247257 -0.541355 -0.465546 -0.852816 -0.024303 -0.198802 1.209900 0.434861 0.956862 0.381785 -1.126335 
hablando -0.500724 -0.235251 0.319518 0.272718 0.414331 0.338776 0.419252 0.169285 -0.004287 0.417918 0.049966 0.084279 -0.370720 -0.209194 -0.308804 0.906782 0.072229 -0.138431 -0.294684 -0.442031 
media -0.272237 -0.395758 0.304147 0.361207 1.039276 -0.451387 0.137771 0.213867 0.181655 0.815652 0.345263 -0.227113 -0.483490 0.387625 0.089494 1.443330 0.278683 0.173073 -0.670914 -0.727851 
bateria -0.484465 -0.425097 0.570889 0.311247 0.510132 0.209760 0.183506 -0.093322 0.168309 0.671982 -0.103630 -0.178101 -0.552438 0.208700 0.253003 0.658383 0.252551 -0.097243 -0.068576 -0.909757 
página -0.367530 -0.220560 0.761013 0.749876 0.435332 0.465653 0.041573 -0.422730 -0.188124 1.030378 0.210994 -0.496919 0.129874 0.324784 0.563371 0.187124 0.388665 -0.206724 0.087656 -1.407366 
1660 -0.601480 -0.348055 0.228326 0.089773 0.551606 0.410741 0.154616 0.031508 0.418768 0.150383 -0.152696 -0.339689 -0.712936 0.152531 -0.116722 0.726380 0.258103 0.112371 -0.137139 -0.675960 
buenos -0.371229 -0.494513 0.378788 0.177357 0.099895 0.542221 0.102897 0.082073 0.297813 0.161695 -0.133022 -0.383056 -0.758622 0.041741 -0.067714 0.293079 0.351689 0.065571 0.141746 -0.502791 
incluye -0.418763 -0.351630 0.622235 0.024018 0.286716 0.812752 0.535284 -0.321081 0.367606 0.064248 0.256687 -0.235369 -0.705751 -0.795798 -0.174921 0.494536 0.077710 -0.140539 0.210134 -0.672670 
utilizar -0.653965 -0.644152 0.635070 0.131620 0.399511 0.019051 0.068138 -0.093451 -0.111062 0.526876 -0.454471 0.157009 -0.784922 0.097864 -0.246715 0.870899 0.235158 -0.085165 0.282839 -0.655691 
colocar -0.178707 -0.751409 0.694149 0.470716 0.677088 0.171106 -0.066432 0.035451 -0.005610 0.363874 -0.187422 -0.192508 -0.565558 0.238382 0.132695 0.830250 0.217977 -0.164797 0.304840 -0.634717 
geforce -1.034551 -0.627597 0.125898 0.392679 0.677788 0.596444 0.326715 0.105717 0.469443 0.100309 -0.057604 -0.565716 -0.945319 -0.405002 -0.429140 1.553010 0.682561 0.563455 0.094554 -0.807987 
programa -0.413751 -0.203766 0.644943 -0.041012 0.416065 0.417101 0.424856 0.067203 0.306693 0.659741 0.013706 0.114870 -0.720503 -0.138619 -0.193434 0.735628 -0.010026 -0.280625 0.151432 -0.815005 
vienen -0.394827 -0.340192 0.585498 -0.155883 0.507878 0.410611 0.178930 -0.237900 0.297303 0.393998 0.335206 -0.078317 -0.790039 -0.296849 -0.122952 0.537592 0.085126 -0.175554 0.162479 -0.818613 
3060 -0.455105 -0.222050 0.504364 0.413803 0.559001 0.362412 0.360871 -0.010029 0.284578 0.375467 -0.128192 -0.228045 -0.553108 0.032505 -0.146700 0.786841 0.139079 0.015337 -0.086657 -0.674955 
portátiles -0.616340 -0.337641 0.566179 0.421071 0.478690 0.571569 0.253228 -0.171218 0.354054 0.580368 -0.092923 -0.268117 -0.542654 0.158084 0.076664 0.678268 0.348212 0.099132 0.087028 -1.046224 
cd -0.258384 -0.360267 0.622125 0.145090 0.235568 0.117769 -0.045975 -0.354219 0.103145 0.682791 0.144792 -0.118370 -0.234317 0.227241 0.209787 0.563507 0.126856 -0.103432 0.246628 -0.752382 
barato -0.284803 -0.374261 0.507250 0.050758 0.235522 0.238815 0.455309 0.050634 0.182179 0.124963 -0.100258 -0.455175 -0.651809 0.067505 0.110530 0.264195 0.058229 -0.262990 -0.085465 -0.553688 
acabo -0.494757 -0.273558 0.706099 0.113473 -0.075118 0.012653 0.039096 -0.007164 -0.240298 0.895358 0.064896 0.313082 0.057133 0.253542 0.268304 1.041139 -0.209087 -0.038042 -0.073035 -0.840316 
funciona -0.551455 -0.297330 0.672694 -0.005242 0.190604 0.637886 0.397221 -0.106252 0.129068 0.362446 0.097782 -0.011826 -0.748960 -0.584255 -0.126031 0.305125 -0.091281 -0.332575 0.170093 -0.772361 
to -1.218483 -0.939326 0.533449 0.877554 0.872816 1.697989 0.648433 -0.046839 0.465582 0.098429 -0.435738 -0.684821 -1.135265 0.015069 -0.408731 1.190917 0.379051 0.414793 0.325487 -1.026228 
pulgadas -0.421154 -0.386610 0.266656 0.113077 0.420926 0.015859 -0.030765 0.052131 0.142417 0.575663 0.033675 -0.217464 -0.276105 0.208213 0.171124 0.806199 0.312378 0.093410 -0.010806 -0.890324 
6 -0.659910 -0.796163 0.455736 0.202170 0.674976 0.005420 0.013467 0.109765 0.046374 0.445132 -0.059681 -0.084791 -0.527624 0.385660 0.022866 1.040056 0.301386 0.302325 0.084370 -0.731150 
iva -0.405014 -0.699089 0.380094 0.152116 0.479966 0.586834 0.142202 -0.168541 0.150610 0.376544 -0.128727 -0.402094 -0.681636 -0.071501 -0.088223 0.662202 0.324908 -0.019370 0.265471 -0.914837 
será -0.734893 -0.311643 0.555767 -0.052811 0.392416 0.327365 0.254579 0.048706 0.108952 0.318314 0.003718 0.148607 -0.731007 -0.677311 -0.210985 1.014331 0.011703 -0.129495 -0.105314 -0.787920 
7 -0.540650 -0.670997 0.398777 -0.232658 0.430971 0.162971 -0.056074 -0.020705 0.320849 0.104218 -0.041761 -0.189904 -0.629496 -0.107869 -0.068433 0.966182 0.231089 0.231878 0.153859 -0.607509 
normalmente -0.410944 -0.537147 0.620762 0.316098 0.457182 0.306303 0.281151 0.112338 0.025854 0.487460 -0.262644 -0.327575 -0.585110 0.232954 -0.004708 0.527342 0.086194 -0.094122 0.328462 -0.708592 
quiera -0.152635 -0.112981 0.562415 0.134334 0.460392 0.621506 0.506248 0.274061 0.215779 0.426886 0.265836 -0.071202 -0.297391 -0.098657 -0.279409 0.486146 0.058109 -0.419624 0.004335 -0.580839 
in -0.912113 -0.651228 0.437411 0.568817 0.518245 1.254248 0.486383 -0.022031 0.549337 -0.099755 -0.436036 -0.585406 -0.878581 0.107324 -0.243221 0.814130 0.300324 0.351213 0.327695 -0.712278 
pena -0.727065 -0.535998 0.579757 -0.033483 0.472939 0.487585 0.289344 0.093160 0.164497 0.111822 -0.229160 -0.370308 -0.751780 -0.231922 -0.041210 0.382500 0.039388 0.039943 0.252328 -0.876543 
sabría -0.392108 -0.389303 0.880034 -0.053289 0.004747 0.450805 0.193759 0.151921 -0.315098 0.614539 -0.038733 -0.281402 -0.680669 -0.951890 -0.209384 -0.026947 -0.431950 -0.635742 0.375345 -0.822404 
requisitos -0.241252 -0.307332 0.745322 0.355911 0.421060 0.180247 0.056352 -0.271051 0.246189 0.729207 0.124724 0.095937 -0.401526 0.218819 -0.066216 0.912063 0.071970 -0.047589 0.021642 -0.744405 
gpu -0.695677 -0.273030 0.520645 0.574483 0.484982 0.158978 0.313566 0.245370 -0.167796 0.602609 -0.192046 -0.037435 -0.148965 0.280401 0.025630 1.067192 0.128713 0.039369 -0.388528 -0.613113 
teneis -0.544014 -0.234208 0.456242 0.196491 0.446874 0.489812 0.436468 0.012251 0.118796 0.331511 0.045652 -0.164018 -0.517055 -0.339119 -0.132864 0.540652 0.138410 -0.227074 0.101104 -0.759745 
fornite -0.680245 -0.148810 0.185927 0.651830 0.484507 0.493503 0.208517 -0.293784 -0.379113 0.619024 -0.242603 -0.137825 -0.216963 0.468055 0.223060 0.195748 0.427517 -0.005047 0.071689 -0.763326 
superior -0.368760 -0.572672 0.224626 0.065997 0.605372 0.053301 0.251402 0.240349 0.217354 0.406147 -0.025757 -0.709452 -0.668226 0.520104 0.251326 0.661013 0.207489 0.187754 0.089578 -0.767762 
for -1.307350 -0.887422 0.481913 0.606725 0.825995 1.233040 0.540698 -0.057764 0.193665 0.199045 -0.428051 -0.359534 -0.946103 -0.020334 -0.356789 1.053974 0.278719 0.456071 0.428292 -0.813013 
mal -0.261594 -0.469093 0.662210 0.013180 0.266616 0.536770 0.288483 0.043573 0.362716 0.385407 -0.078794 -0.366522 -0.995520 -0.584319 -0.097013 0.063481 -0.172857 -0.183736 0.105688 -0.841551 
nuc -0.603058 -0.703050 0.168789 0.107586 0.638063 0.853691 0.229473 0.046232 0.678839 -0.173561 -0.478030 -0.478545 -0.660668 -0.091735 -0.253414 0.822149 0.617024 0.024792 -0.518835 -0.175216 
disponibles -0.383284 -0.259326 0.603844 0.326667 0.198975 0.606184 0.315341 -0.069681 0.231475 0.111342 -0.102324 -0.381316 -0.631811 -0.130591 -0.155369 0.113830 0.132145 -0.240079 0.300666 -0.699313 
mire -0.475191 -0.346429 0.337222 0.152651 0.152534 0.584680 0.114699 0.112740 -0.082227 0.324142 -0.021194 -0.045060 -0.457036 -0.161842 -0.288165 0.551600 0.108286 -0.276352 0.175583 -0.507268 
podrías -0.501401 -0.096987 0.550540 0.511145 -0.139913 0.683532 0.394162 -0.002581 -0.256317 0.479450 -0.096408 -0.432615 -0.435491 -0.155449 -0.355868 0.137705 0.193356 -0.206639 0.232770 -0.632416 
máxima -0.344315 -0.307196 0.235459 0.702714 0.902350 0.173817 0.364239 0.137037 0.136051 0.526803 0.148854 -0.555142 -0.511630 -0.067960 -0.253198 0.956779 0.590605 0.119377 -0.297864 -0.763026 
cesta -0.670337 -0.527618 0.467717 0.407894 0.380426 0.368362 0.190886 -0.153802 -0.287041 0.583855 -0.160846 -0.401002 -0.233641 0.312525 0.382779 0.139334 0.330518 -0.100433 0.350444 -0.800579 
